10
religion 0.576920 0.387285 0.501753 -0.305606 0.088985 1.012001 -1.146466 -0.812231 -0.155037 -0.176862 1.465396 0.432303 0.051630 0.095769 0.388634 -0.096891 0.407739 0.415382 -0.222332 -0.510613 0.331373 0.118922 0.089742 -0.072751 0.861908 -0.398577 0.590988 -0.524576 0.038339 0.461502 0.335961 -0.480352 0.203835 0.555230 0.586757 -0.329913 -0.690807 0.368015 0.265188 0.990092 -0.763098 1.068083 -0.384560 0.066982 -0.171174 0.656169 0.187574 -0.450202 -0.267653 0.297886 0.082148 -0.321917 0.397986 -0.229047 0.547513 0.625810 0.568440 0.528064 0.400042 0.011131 -0.294013 -0.656553 -0.285665 0.221085 0.469888 -0.154521 -0.452330 -0.143797 0.047186 -0.176427 -0.500937 -0.389223 -0.619480 0.722128 0.023614 1.081528 0.660318 0.910448 1.400087 0.571007 0.547481 0.171521 -0.237255 0.417363 0.320580 -0.885470 -0.522421 -1.000720 -0.988563 -0.670232 -0.292831 -0.181699 -0.811761 0.554762 0.692309 -0.034477 1.058032 0.210880 -0.455718 0.344817 
hardware -0.302566 0.198032 0.323873 0.154552 1.027911 0.519739 0.446550 -0.305071 0.374891 0.495910 0.601710 0.622190 0.096781 -0.055228 -0.201212 -0.355989 -0.204480 0.099386 0.421093 0.516166 0.843451 -0.805805 0.512863 0.379848 -0.070888 0.341522 0.310865 0.997823 -1.137114 -0.008551 0.915811 0.223947 1.841561 -1.226812 -0.640041 -0.079729 0.792120 -0.014343 0.704105 -1.028550 -0.411331 0.235607 -1.201505 -0.721529 0.264850 0.528459 0.558295 0.931294 0.230010 0.511863 -0.305001 0.585678 0.827272 0.585350 0.606427 0.920887 -0.221920 -0.478661 0.538745 -0.038351 -0.876632 0.348466 0.375082 -0.084932 0.048204 -0.151293 -0.595542 -1.122677 -0.317188 0.718436 -0.044538 -0.077411 -0.136481 0.537794 0.103062 0.400802 0.733488 1.608236 -0.788093 0.089263 -0.345501 -0.083899 0.209637 -0.682152 -0.499828 -0.028527 0.076700 -0.706204 -0.045241 -0.288583 0.083074 -0.510963 -0.042369 0.333704 -0.427208 -0.690108 0.472405 0.559358 0.211885 0.282140 
space -1.096174 0.276118 1.236156 0.076044 -0.281871 0.205737 -0.128799 0.897796 0.212597 -0.036132 0.974896 0.068893 -0.519121 0.374644 -0.231217 -1.351149 -0.038932 0.515418 0.508706 -0.859759 0.193996 -0.459911 -0.244058 0.408859 -0.175600 -0.665057 -0.150518 0.899197 -0.943339 -0.509243 1.196883 0.128552 0.425089 0.416494 -0.094067 -0.593694 -0.164568 0.003423 0.929213 0.081713 0.249661 0.287990 0.406650 -0.231722 0.448602 -1.958812 -0.008646 -0.102821 -0.251296 -0.525537 0.209041 0.593332 1.157761 -0.187848 0.225257 0.232268 -0.876506 -0.555692 0.433709 0.302928 -0.558785 0.642346 0.399473 1.133816 -0.571355 -1.130055 0.130843 -0.116341 -0.431375 0.447944 1.153052 -0.500921 -0.462593 -0.086820 0.621392 -0.897811 -0.533756 1.320826 0.460538 0.321946 0.072777 -0.341795 0.910802 -0.504784 -0.108747 -0.684102 -0.658397 0.482495 -0.251012 -0.332781 -0.039002 0.583961 0.475998 -0.245491 0.341637 -0.762881 0.456239 -0.603015 0.045142 -0.295677 
gun 0.368145 -0.218671 -0.121389 -1.147139 0.157050 0.990798 -0.773725 1.476704 -0.137851 -0.756289 1.245087 0.205438 1.593961 -0.440504 0.272776 -0.116135 -0.142014 -0.176305 -0.593934 0.497463 1.104442 -0.668341 -0.273072 -0.270532 0.489728 1.335758 -0.310704 -0.461696 -1.376050 -0.251288 0.458522 -0.085940 0.277993 0.653851 -0.216695 -0.336948 -0.368243 -0.441469 -0.565312 -0.042030 -0.097039 0.272545 -0.570355 -0.128913 -0.251464 0.795739 0.213746 -0.336458 0.219172 0.264586 0.419910 0.420774 0.050656 -1.464989 0.734004 -0.976499 -0.196114 0.156251 -0.281022 0.375366 -0.590253 -1.016857 0.264384 0.412472 1.594854 0.401236 0.308094 -0.565705 0.558143 -0.326350 0.300073 -0.615708 0.908432 0.183360 0.962218 0.746948 -0.357672 1.312882 0.262187 -1.033789 0.817997 -1.048769 -0.501454 -1.006639 0.523105 -0.312780 -0.993456 -0.275424 0.300078 -0.615077 0.128428 -0.394556 -0.107509 0.287646 0.712201 -0.083597 0.804733 -0.875719 0.296702 -0.069660 
medicine -0.418052 0.364829 -0.082647 -0.085139 -0.330079 0.531527 -0.035748 -0.544849 0.536549 -0.951812 0.891209 0.834391 1.033096 -0.819862 -0.081894 1.318344 -0.260183 0.353574 0.002083 -0.173543 1.014831 -0.174052 0.647898 0.269085 -0.047237 -0.543084 0.244055 0.136400 0.511920 0.143508 1.327706 -0.032140 0.302270 -0.211037 -0.119106 0.215060 -0.258925 0.260379 0.118573 0.745679 0.006371 -0.294488 -0.016160 -0.363209 -0.414805 0.129142 -0.250332 -0.114842 0.532925 -0.333727 -0.783531 1.078989 -0.012309 -0.074261 1.214898 0.357677 -1.358500 0.250917 0.132530 -0.004526 -0.412990 -0.162237 0.029592 1.146364 0.567506 -0.428224 -0.855051 -0.199942 -0.445622 0.091555 0.782170 0.651476 -0.177745 -1.110484 0.311975 -0.633296 1.103492 1.155279 0.236924 -0.167683 0.634532 -0.195505 0.146846 0.398051 0.709698 -0.903614 -0.073056 -0.348724 -0.925476 0.283707 -0.646639 0.127010 -0.885897 -0.359787 0.152398 0.281232 0.649406 -0.462447 0.414437 0.040849 
sanskrit -0.438654 -0.241795 -0.296546 0.017726 -0.413739 0.346185 -0.588146 -0.406655 -1.204570 -0.399709 1.501048 0.641049 -0.025913 0.547374 0.043724 0.163954 0.102766 1.222938 -0.871864 -0.069353 0.354611 -0.969352 -0.498715 0.727359 -0.214810 -0.226147 0.181422 0.933727 0.460714 0.308886 0.192164 0.480141 0.604704 -0.247486 0.146853 -0.473804 -0.096715 -0.318949 0.557989 1.016310 -0.737762 -0.381666 -0.054632 -0.332650 0.361028 -0.037540 0.619404 -0.510341 -0.079900 -0.418942 0.463196 0.153753 0.534652 0.382397 0.265954 -0.359728 0.046474 -0.691691 -0.589594 0.169930 -0.608512 0.975258 0.019940 0.599916 0.300524 0.170070 -0.809687 0.423391 0.401778 0.371455 -0.233126 1.292908 0.752479 0.028340 0.621438 0.050290 0.470119 0.448888 1.144763 1.103319 -0.866861 0.176200 0.266085 0.909847 0.398257 0.349624 -0.157406 -0.239331 -0.087126 0.707165 0.906404 0.378317 -0.483320 -0.294757 -0.280440 -0.180612 0.387672 0.231004 -0.825258 0.749535 
mythical 0.501099 0.783885 -0.780910 -0.704116 0.048643 0.525542 -1.091695 0.787523 -0.689395 -0.327771 0.994923 0.364646 -0.120730 -1.004607 0.585628 -0.197941 -0.057794 0.309967 0.320890 -0.288321 0.920321 -0.134188 0.455184 -0.364001 -0.296178 -0.246321 -0.778102 0.979102 -0.773454 0.356424 0.810025 -0.178941 0.765732 -0.609546 0.144763 0.875454 -0.331030 -0.504586 -0.388805 0.464185 -0.047233 0.220113 -1.238931 -0.188589 -0.009430 0.037533 0.107561 -0.377696 0.159622 -0.848829 0.212137 -1.767285 1.177590 0.411013 0.923982 -0.017559 0.046550 -0.954206 0.317680 -0.818936 0.032921 0.083254 1.168946 0.302456 -0.377003 -0.077177 0.030764 0.170999 -0.443784 0.037117 -0.360123 -1.316962 0.068548 -0.708329 -0.378979 -0.138996 0.245334 -0.638915 -0.117484 0.308011 0.531863 -0.193795 -0.265783 0.528379 -1.113258 -0.729885 -0.547953 0.401433 -0.434289 -0.609519 -0.332764 0.132351 -0.023505 -0.756184 0.413003 -0.132382 -0.395627 0.602681 -0.767233 1.452596 
rbis 0.428272 1.087953 0.406863 0.053622 0.916984 1.297251 -0.638565 0.796144 -0.245773 -0.042893 0.663646 1.306191 1.584903 -0.018759 0.138852 -0.110640 0.306075 -0.442101 0.185873 0.500512 0.408813 -0.704378 -0.064322 -0.179309 0.545188 -0.046597 -0.548261 -0.216777 0.667771 0.698017 0.207811 -0.636827 0.209955 0.533611 -0.196953 -0.178338 -0.169712 -0.245809 -0.649622 -0.518613 -0.393438 -0.696140 0.622945 -0.632881 -1.032365 0.302660 0.191158 -0.961863 0.494121 -0.123180 -1.487856 0.654793 -0.169273 -0.094817 0.029157 0.381487 0.642350 0.198445 -0.479814 0.790857 0.328628 1.153124 0.663422 -0.174934 -0.112201 -0.110137 -0.474200 0.351290 -0.633348 0.358554 0.486844 -0.976096 1.190895 -0.700790 0.200277 0.015194 -0.567098 1.146757 -0.287254 -0.501842 0.021985 0.172993 0.217921 -0.299174 -0.821470 -0.766492 0.813817 0.667005 -0.572144 0.260307 0.123228 -0.173728 -0.660800 0.219631 -0.088837 -0.177717 0.169534 0.265982 0.012560 0.359640 
forested 1.332177 -0.282926 -0.951343 -0.509845 -0.269105 0.781219 -0.396270 1.069346 0.379736 0.499403 1.354465 0.424621 0.461272 -0.253069 -0.839607 -0.939911 -0.529139 0.027137 -0.430632 0.141198 -0.509030 -0.543117 -1.419301 -0.129112 0.460356 -0.694439 -0.148867 0.225486 -0.908179 -0.443126 -0.317463 -0.229179 0.336379 -0.951321 0.249634 0.383409 0.223007 -0.096882 0.026565 0.347422 -0.636781 -0.357262 -0.498452 -0.581598 -0.672141 1.335649 -0.647162 0.259758 -0.377481 0.098630 -0.562362 0.428586 0.302963 0.008528 -0.294850 0.326781 -0.396635 0.338717 -1.130505 -0.655158 -0.658238 0.310883 -0.183029 0.689290 0.578963 -1.504115 0.227280 0.790597 -0.321284 -0.357511 0.322725 0.577914 0.145249 0.103898 1.614430 0.072734 -0.282859 -0.211093 0.434327 0.699877 0.028322 -0.070412 0.296468 -0.492164 -0.916316 -0.931966 -0.682656 0.113688 -0.845345 -0.874042 0.417378 -0.020832 -0.500081 -0.708477 0.561519 0.562194 0.489232 0.406461 0.046132 -0.224547 
cmap_compact -0.064711 1.063689 -0.365294 1.107492 -0.364455 0.456954 -0.887926 0.728368 -1.269333 0.353534 0.372741 0.931847 -0.472858 0.568566 -0.935915 -0.082414 -0.738140 0.505808 0.468613 -0.065393 0.234421 0.644439 1.178042 -0.062405 -0.528328 0.924723 -0.823697 0.939597 -0.749534 -1.155226 -0.689929 -0.440647 0.531373 0.366514 0.419504 0.614867 0.185150 -0.341218 0.633203 0.572902 0.117527 -0.309864 0.581239 -1.797380 0.626074 -0.250794 0.155778 -0.558973 -0.393838 0.801452 0.472118 0.050791 -0.489393 0.450952 0.037822 -0.352435 0.008758 0.762444 -0.206043 -0.148278 0.135289 0.869570 -0.658355 -0.183832 -0.014397 -0.198592 0.052351 0.442865 0.050263 -0.418924 -0.490672 -0.104631 -0.302010 -0.818354 -0.124441 -0.293018 0.484796 1.324158 -0.051833 -0.271141 0.167129 -1.142966 -0.282510 0.685229 -0.881671 0.112054 -0.146840 -0.828192 -0.464225 -0.045904 -0.407019 0.020650 0.838891 1.084097 0.898992 1.060516 0.542576 0.068228 0.466860 -0.336346 
