10
religion 0.180823 0.126143 0.157530 -0.460059 0.091972 1.115855 -1.358093 -0.705729 -0.697901 0.035485 1.688478 1.000534 0.250070 0.150519 0.792083 0.273197 0.243152 0.817521 -0.244409 -0.433817 0.754341 -0.293178 0.332945 0.122881 0.569195 -0.519238 0.052888 0.361026 -0.213821 0.602524 0.183656 -0.394411 0.625943 0.403987 0.592092 -0.000700 -0.317064 0.069481 -0.283338 0.627375 -0.988471 1.079125 -0.806849 0.073357 -0.033015 0.389386 -0.061070 -0.398426 -0.397049 0.116495 -0.111480 -0.932467 0.403447 -0.044215 0.812022 -0.053759 0.646435 0.084446 0.187565 -0.376600 -0.262468 -0.163123 0.051476 0.305370 0.236082 -0.023627 -0.633757 0.188970 0.147258 -0.145002 -0.773697 -0.318487 -0.576049 0.316329 0.408946 1.330638 0.783519 0.687071 1.132900 0.641225 0.056782 0.399517 0.136695 0.970953 0.211170 -0.327529 -0.587528 -0.763664 -0.838356 -0.441294 -0.481269 0.015561 -0.529906 0.232622 0.620751 0.563001 1.455385 0.298303 -0.596180 0.743159 
hardware -0.187760 0.875006 0.374451 0.735913 1.578715 0.842175 0.090870 0.032556 -0.179540 0.721337 0.965826 0.666989 -0.355806 -0.356495 -0.030571 -0.245240 -0.037810 0.105642 0.452472 0.533884 0.885911 -0.860784 0.993643 0.616901 -0.122507 0.327338 -0.050345 0.903690 -1.441953 0.258823 0.375270 0.271958 1.629884 -0.910630 -0.770576 -0.215398 0.773804 0.268905 0.418729 -1.238648 -0.147509 0.204524 -0.926984 -1.049835 0.529754 0.255509 0.494161 0.935191 0.413323 0.830447 -0.376094 0.308675 0.683345 0.513747 0.647522 0.522491 0.076450 -0.267218 0.518010 0.132724 -0.814933 0.629693 0.262878 0.142549 0.166055 -0.566706 -0.468186 -0.988743 -0.212731 0.264676 -0.419458 0.053114 0.062694 0.090741 0.250672 -0.049919 0.871328 1.844599 -0.794498 0.280373 -0.664151 -0.407891 0.398969 -0.421185 -0.610504 0.295296 -0.335071 -0.612166 -0.420525 -0.356742 0.007833 -0.681936 -0.201732 0.754015 -0.521581 -0.733335 0.505526 0.772644 0.319415 0.214304 
space -0.929272 0.066633 1.056036 -0.091157 -0.613979 0.302717 -0.166720 1.161215 0.119612 -0.011331 1.002442 0.866625 -0.683368 0.411145 0.114783 -1.231604 -0.095182 0.473656 0.846704 -0.351080 0.618799 -0.213012 0.039725 0.354824 -0.800199 -0.420899 -0.713480 1.478441 -1.072576 -0.240151 0.627501 0.084983 0.493987 0.397294 -0.327003 -0.070312 -0.141396 0.346141 1.052867 -0.025442 0.093779 0.383126 0.245849 -0.321512 0.869886 -1.987360 0.276828 0.000873 -0.058553 -0.669243 0.029790 0.367998 0.768422 0.111001 -0.344502 0.048295 -0.833255 -0.545221 0.435072 -0.135663 -0.639952 0.461853 0.418552 1.078417 -0.892935 -0.997008 -0.182110 -0.163726 -0.261911 0.418056 0.994726 -0.367274 -1.031654 -0.361067 1.076472 -0.746623 -0.693684 1.803208 0.258239 0.117598 0.290530 -0.821402 1.258912 -0.310014 -0.223404 -0.733135 -0.533418 -0.203094 -0.724660 -0.444074 0.142459 0.563937 0.532688 -0.064418 0.156190 -0.242151 0.580192 -0.364907 0.048983 -0.320248 
gun 0.067857 -0.128630 -0.171886 -1.298806 0.190991 0.658873 -0.672137 1.617509 -0.164790 -0.173060 1.051836 0.421224 1.720818 -0.781501 0.010077 0.005727 0.033125 -0.194678 -0.590640 0.562781 0.790285 -0.719709 -0.024632 -0.273479 0.123755 1.464862 -0.087998 -0.196468 -1.657062 -0.088896 0.165084 0.210852 0.521297 0.461932 -0.423560 0.000872 -0.481431 -0.538136 -0.460696 0.026492 -0.064403 0.569947 -0.888096 -0.249034 0.071674 0.682732 0.466638 -0.234576 0.376605 0.812906 0.115212 0.923241 -0.540024 -1.217770 0.207259 -0.851591 -0.346227 0.076911 0.007354 0.285276 -0.607908 -0.808410 -0.184673 0.003606 1.155535 0.072026 0.218691 0.046834 0.465810 -0.291521 0.229043 -0.472816 0.476880 -0.171051 0.798175 0.978761 -0.003363 1.526833 0.323919 -0.988174 0.719448 -0.913281 -0.145949 -0.340950 0.377133 0.269859 -0.980791 -0.326914 -0.256757 -0.510492 0.308455 -0.350149 -0.027845 -0.326595 0.664475 -0.135950 0.816459 -0.739620 0.392031 -0.131316 
medicine -0.678571 0.291503 -0.305093 -0.163699 -0.212964 0.641924 -0.150564 -0.440290 0.560076 -0.679940 1.221932 0.736208 1.056977 -0.621364 -0.271339 1.338013 -0.169438 0.258424 0.102951 -0.032362 0.915616 -0.232359 0.506664 0.264349 -0.039327 -0.422093 -0.064620 0.252524 0.419198 0.134187 0.918879 0.218599 0.334606 -0.227555 -0.193646 0.295823 -0.383885 0.289759 0.388958 0.693279 -0.017646 -0.241191 0.106070 -0.492066 -0.330177 0.180580 -0.348063 -0.034625 0.652570 -0.410514 -0.786967 1.018966 0.211084 -0.127803 1.246891 0.338886 -1.217257 0.055067 0.320218 0.244111 -0.389684 -0.174620 0.159132 1.052299 0.709800 -0.568112 -1.086473 -0.190903 -0.036576 0.265587 0.787962 0.690242 0.194724 -1.211634 0.347027 -0.659171 1.078926 1.005832 0.416131 -0.059074 0.708391 -0.163663 0.071588 0.463743 0.872545 -0.974768 -0.114698 -0.670981 -0.917825 0.431470 -0.529112 0.096735 -1.041077 -0.446490 0.076787 0.227531 0.710251 -0.447845 0.522729 0.037199 
crawl 0.856869 1.136468 -0.614557 0.471007 -0.384226 0.208158 -1.068119 1.262107 -0.190720 0.243200 1.354807 0.270116 0.116311 -0.688475 -0.335012 -0.740861 0.253024 0.799431 -0.427634 0.628829 -0.146444 0.086523 0.240256 -0.756316 0.594272 -0.312379 -0.479296 0.530576 0.164956 -0.837380 -0.256535 0.459918 0.187648 -0.317516 -0.272009 0.092286 -0.179934 -0.281384 -0.234908 0.057801 0.257000 -0.974659 0.950676 -0.496233 -0.324588 -0.418639 -1.283384 -0.218688 -0.160679 0.075785 -0.010737 0.570696 0.556865 -0.317996 0.659083 -0.076891 -0.075177 0.133815 -0.622215 0.261448 0.245780 0.203601 -0.961873 1.232261 0.659269 -0.771734 -0.333449 1.136544 -0.032977 0.233571 -0.751721 0.086032 0.125827 -0.295508 1.045344 -0.768991 0.111366 0.932490 0.166794 -0.899589 0.066920 -0.687162 -0.640907 0.828655 -0.836788 -0.424367 0.184204 -0.174941 -0.488206 -1.263939 0.187791 0.050402 -0.608865 1.533871 0.042512 0.014455 -0.621353 0.370570 -0.772510 0.993172 
graphic 0.690545 -0.454963 -0.889568 0.130154 0.226914 1.107573 -0.253502 -0.031920 0.150046 -0.181700 2.321558 2.083647 0.048508 0.167165 -1.786671 0.170380 -1.365179 -0.040364 0.281944 0.120017 0.192373 0.176302 -0.234757 -0.034224 0.407732 -0.215202 -0.114854 0.897590 -0.380833 -0.262533 0.884876 -0.187134 0.788247 -0.934299 -1.546334 0.662922 -0.066524 -0.346226 1.147135 0.785811 0.104936 0.281800 -0.292735 -1.277396 0.572370 -0.242658 -0.025596 -0.219614 0.156097 1.261336 0.230908 0.489079 0.022130 1.214216 -0.008227 1.229522 0.057503 -0.521117 0.743239 -0.249153 -0.176956 0.776326 0.616721 0.301207 -0.197019 0.963461 -0.603628 0.158886 0.738761 1.179703 0.846850 -1.740088 -0.087306 -0.189851 0.438540 0.470121 0.420770 -0.161222 -0.253884 0.343858 0.401478 -0.043469 -0.026519 0.093718 -0.363919 -0.291820 -0.221473 -0.706844 0.606892 -0.210550 0.483996 -0.646787 1.041288 -0.265734 -0.123084 0.642074 1.013904 -0.733134 -0.104523 0.953670 
sportsman 0.771650 0.699416 0.065560 -0.540937 0.470240 0.351947 -1.034611 -0.175215 -1.339661 -1.323111 0.808901 0.942022 0.232993 0.489498 -0.248454 0.047313 -0.198872 0.979110 0.077533 -0.387229 0.201867 -1.062153 -0.883075 -0.271032 0.591908 0.583466 -0.091366 1.001211 -0.231727 -0.536607 1.154890 0.152012 0.379333 0.379561 0.311448 -0.136545 0.073108 -0.123291 0.298541 0.026957 -0.456587 -0.995905 -0.055116 0.159337 -0.659582 0.919317 0.145658 -0.970253 -0.183800 -0.813338 -0.256210 -0.528481 0.748843 0.180737 0.327052 -0.024034 -0.193682 0.181227 0.100825 -0.411047 -0.860529 0.192367 0.585145 0.246906 0.978432 0.259840 0.527199 -0.874325 -0.217495 0.493434 -0.378088 -1.554835 0.328761 0.506036 -0.347604 -1.280552 -0.989940 1.272716 -0.144947 -0.260753 0.918871 -0.549682 0.110919 -1.286232 -1.129633 -1.289261 -0.301331 0.211018 -0.001201 -1.295757 -0.030456 -0.499369 -1.081350 0.022126 1.077245 0.050124 -0.023643 -0.238173 0.139256 -0.887974 
political 0.472397 0.806312 0.014319 -0.064349 0.223551 0.291597 -0.857136 0.776092 0.083643 -0.437606 1.537049 -0.038314 -0.969935 -0.656829 -0.089588 -0.832776 0.433740 0.164652 -0.961113 -0.266887 0.007776 -0.647460 0.825483 0.385353 0.752051 -0.233142 0.402724 -0.514738 -1.332592 0.195797 0.424689 0.194841 -0.601093 0.663972 0.592479 -0.827539 0.221087 0.273272 0.244713 1.120258 0.161899 0.202597 0.734571 -0.027050 -0.320947 0.469521 1.121413 0.461918 1.196138 0.811628 1.365096 0.440037 0.047841 -0.023777 0.962518 0.478521 0.539734 0.040696 0.127953 -0.416146 -1.442545 -0.812410 0.813612 0.318694 -0.706092 -0.361226 0.137933 -0.598808 -0.766242 -0.107741 1.221800 -0.306830 -1.198016 -0.946302 0.083603 -0.126857 0.831547 1.935413 1.542791 0.338033 0.848218 -0.642716 -0.925758 0.161887 -0.149984 -0.724833 -0.420718 -0.372535 0.100253 -0.987210 -0.096356 0.321546 -0.849517 -1.019590 0.592589 -0.634116 0.420612 0.678297 0.926559 0.967459 
window -1.071819 -0.539166 -0.297787 0.705243 -0.862829 0.356049 -0.888139 0.475797 -1.110649 -0.172749 0.628166 1.409338 -0.022583 -0.484098 -1.518828 -0.627394 -0.272279 0.535264 -0.511724 1.057579 0.511130 0.112406 0.621162 0.722737 0.454850 1.442607 -1.186229 1.019055 -0.689583 -0.931808 -0.169299 -0.336001 0.437229 -0.094157 0.508223 0.080119 0.292648 -0.204196 -0.256662 0.021302 -0.357936 -0.817713 -0.298157 -0.851774 0.884670 -0.265366 0.130245 -0.389671 -0.033082 1.426904 0.766614 -0.121511 0.340857 -0.242294 -0.010785 0.484420 -0.100601 0.369358 -0.038522 0.203650 0.226422 0.556170 -1.367216 0.424509 0.171665 0.280251 -0.723191 -0.971980 0.029908 0.273189 0.216050 -0.511778 -0.796966 -1.177827 -0.354621 0.457045 0.475865 1.144989 0.390756 0.725068 0.259346 -0.628244 0.123117 0.190988 -0.045182 -0.399393 0.118736 -1.122298 -0.940825 1.093040 -0.189607 -1.114481 0.638629 1.664088 0.413443 0.868653 1.119668 -0.469859 0.829485 -0.025806 
