20
civilian 0.447638 0.137703 -0.094424 0.120865 0.194334 0.263776 -0.693583 1.751772 -0.594684 0.444690 0.572321 0.396297 1.318698 -0.547076 -0.552944 -1.312110 -0.009978 -0.287331 -0.421544 -0.494670 -0.331975 -0.601226 -0.494427 -0.155041 0.146281 0.363841 0.347492 0.478443 -0.878530 -0.112511 0.387307 1.047893 0.953281 0.714610 -0.273375 0.420161 0.539410 0.858811 0.744459 -0.039784 -0.690190 0.214008 -0.416464 0.944327 -0.470446 0.358783 0.521965 -0.470106 0.025674 1.344158 0.448907 -0.299949 0.154732 -0.999093 1.018741 -0.632291 -0.856242 -0.319683 0.523205 0.360639 0.632893 0.298876 -0.034010 -0.228569 -0.427941 -0.445717 -0.013676 0.367728 -0.088411 0.194157 -0.581371 -0.106752 0.009859 -0.056531 0.665258 -0.339134 0.072200 0.771567 0.530025 -0.266052 0.008088 0.103241 0.270965 -1.395983 0.138262 0.157206 -0.242022 0.318096 -0.934767 -0.925140 0.661515 -0.081859 -1.305747 0.125640 0.543020 0.125763 -0.428203 0.895323 0.000038 -0.019521 
frederic 0.266415 0.734267 -0.965785 -0.674013 0.343691 -0.532275 -1.039491 -0.098774 -0.263632 1.149941 0.925008 -0.203994 -0.046238 0.414470 -0.153171 0.188447 -0.056485 0.971135 0.005106 0.473295 0.105899 -0.125922 -0.217441 0.010354 -1.000029 -0.080959 0.164906 0.124757 -0.635187 0.074452 0.868188 -1.018538 -0.260597 -0.456392 -0.024258 0.094571 -0.059079 -0.372235 0.503546 0.238018 0.119076 -0.345748 -0.404259 0.104408 -0.422410 -0.946803 -0.296307 -0.204271 -1.056835 0.234926 0.215303 0.092783 0.590518 -0.130657 0.769677 0.279395 -0.308010 -1.075563 -0.188396 -0.703885 -0.764279 -0.169931 -0.006136 -0.384927 1.308622 1.906439 0.244656 0.265409 -0.156306 -0.241920 0.238017 -0.871288 -0.058291 -0.796899 0.255688 -0.816547 -0.247043 0.261926 -0.261605 -0.123645 0.859476 0.011155 -0.205687 0.283153 0.640571 -0.157526 0.105188 0.050978 -0.264623 -0.432719 -1.663435 -0.577302 -0.434486 0.879529 0.030309 -0.536041 0.604862 1.427705 0.207009 0.452146 
raw -0.164446 0.922466 0.734475 -0.040181 0.363021 0.294617 0.155148 -0.104720 -0.640846 -0.153274 0.992661 0.103863 -0.167771 -0.481116 1.185679 -0.251659 0.430059 -0.787931 0.255922 -0.645966 -0.158048 -0.481477 -0.565426 -1.171500 0.139006 0.121556 0.518649 0.230206 -1.227446 0.081868 0.040741 -0.673129 0.108435 -0.319884 -0.095150 0.811219 -0.104704 0.397928 0.214297 0.556449 -0.042234 -0.736948 0.004519 -0.466633 0.243465 -0.619420 -0.361962 0.346491 0.054845 0.510141 -0.241037 0.108295 -0.119461 0.852470 0.243794 -0.151217 0.328768 -0.172748 -0.244623 -0.568549 0.196067 1.070744 -0.154375 -0.321018 0.718802 -0.148982 -0.112903 0.115842 1.046645 -0.135618 0.978845 0.969574 -0.293432 1.045386 0.554502 0.159210 0.308984 0.038600 -0.945532 -0.420452 -0.666802 -0.451727 0.209111 1.621858 0.313699 -0.235041 -0.432693 -0.760123 -0.773496 -0.603513 0.112125 0.064276 -1.042618 -0.295361 0.067530 -0.443707 0.740121 -0.275553 0.503986 -0.528788 
edge 0.295734 0.407338 0.362895 0.116356 -0.631017 0.064470 -0.772536 0.683847 0.243297 -0.282825 -0.038973 1.225307 -0.323286 0.527067 -0.299621 -0.660296 -0.614415 0.102537 0.546903 0.338976 -0.198990 -0.885591 0.568671 -0.317899 0.450065 1.648165 -0.115595 -0.462798 -0.243638 -1.652482 0.098696 -0.404174 -0.432027 0.637859 0.153584 0.365075 0.390928 -0.121277 -0.312754 -0.525103 0.451877 -0.564517 0.200264 -0.497090 0.337681 0.107906 -0.653917 -0.986945 0.012894 -0.048094 0.032220 0.706467 0.138469 1.477782 -0.541706 0.255172 -0.512379 -1.067420 -0.121375 0.409402 0.529744 0.407224 0.090391 0.854220 0.537059 -0.399649 -0.469731 0.660331 -0.422795 0.346205 0.114635 -0.299615 0.118361 -1.044352 1.270878 -0.522741 0.752073 1.011655 -1.086119 0.387692 -0.843657 0.818622 0.461632 0.470867 -1.501311 -0.273116 -0.230513 -0.198001 0.443511 -0.299018 0.190976 -0.272250 0.183184 -0.277894 0.180954 -0.468515 0.274316 -0.231744 0.605681 0.346481 
complaint -0.010949 0.687765 -0.095750 0.640520 0.152164 0.163174 -0.126429 1.145614 -0.102401 0.139846 0.368269 0.418695 -0.758449 -0.565073 -0.515207 -0.594151 -0.210141 0.406189 0.061464 -0.049183 0.771576 0.160116 0.437651 0.069042 0.393381 0.333985 0.563734 0.542786 -0.970675 -0.443820 0.711908 -0.039876 -1.083828 -0.037026 0.834895 -0.664924 -0.511508 -0.877440 0.187965 -0.296771 -0.407127 0.200133 -0.030941 -1.053851 -0.772572 0.157307 -0.213278 0.326383 0.771280 0.147525 0.250244 0.358265 0.297252 -0.429178 0.134669 -0.460991 -0.567557 0.391967 0.579649 -0.511388 -1.059528 -0.486077 -0.030531 0.036667 1.074630 0.305302 -0.087898 -1.217213 0.030626 0.173690 -0.575525 0.197087 0.339781 0.437336 -0.273018 0.407349 -0.713936 1.108155 0.619556 -0.070236 0.330880 0.715383 -0.213688 -0.577119 0.500831 -0.584631 -0.896758 -1.012542 0.032569 -0.534179 0.841614 -0.193655 0.363595 0.251764 -0.233667 0.162320 -0.701451 -0.673214 0.618599 0.229706 
apparent 0.457920 0.581755 0.708676 0.620435 0.953171 -0.363383 -1.317785 -0.310017 -0.712834 -0.485136 0.678773 -0.143085 1.245903 -0.786089 -0.946582 -0.535219 -1.286198 0.514763 -0.618965 -0.141280 -0.613931 -0.495965 0.735180 -0.275505 -0.500894 0.041618 -0.585186 0.546191 -0.307485 -0.165337 0.115873 -0.282798 0.280542 0.552625 0.035602 1.129836 0.080453 1.097340 0.990888 -0.454316 -0.725919 0.625574 -0.262246 0.104748 0.796858 -0.523247 -0.339348 0.425509 -0.715226 -1.063799 0.728168 0.208057 0.129699 0.559603 -0.256625 -0.970923 0.580708 0.146871 -0.399125 -0.255976 -0.649876 0.867043 0.752247 0.188357 -0.224713 0.257351 -0.149262 0.169263 -0.410211 0.426625 0.974651 -0.666802 -0.287183 -0.308936 -1.737538 0.001142 0.141790 0.575197 0.926921 -0.403189 -0.855345 -0.258352 0.105986 0.129952 -0.583882 -0.764441 -0.111210 -0.851623 -0.790956 0.395708 -1.125570 1.116265 -1.018539 -0.032381 0.799157 0.472199 -0.773130 0.192116 -0.404960 0.264937 
keith 1.667370 0.663264 0.357709 -0.487334 0.293211 0.466804 -0.383219 0.501357 0.347886 -0.673004 0.011370 0.863873 0.148493 0.111958 0.024791 -0.173487 0.763321 0.027479 0.448772 0.311113 0.879091 0.249421 0.433196 -0.415823 -0.864155 0.473806 -0.185913 0.285404 1.018823 0.237415 -0.312186 -1.023171 -1.395532 -0.292129 -0.949166 -0.188165 0.003196 0.306597 0.301437 0.278517 -1.234252 0.403734 0.228872 -0.306283 0.045661 0.138315 0.219514 -0.022561 -0.103922 0.264470 -0.588546 0.330248 0.106127 0.253473 1.724676 -0.297123 0.291155 1.113149 -0.737446 -0.677013 -0.076733 0.560205 0.278455 0.905252 0.444791 -0.650027 -0.185064 -0.136080 0.549139 0.605871 -0.081165 -0.688577 -0.069078 -0.992066 0.249664 -0.340365 -0.375605 0.373897 0.151760 -0.954263 1.366564 -0.594229 -0.786486 -0.012376 -0.958536 0.246513 1.019362 0.242310 -0.028224 -0.639203 0.037379 0.078544 -0.927123 0.497976 0.177589 0.444693 -0.256767 0.460889 0.439773 -0.308287 
bank 0.934543 0.633282 0.736801 -0.050702 0.091437 -0.033711 -0.662500 0.045452 -0.355207 0.124569 0.363743 0.595850 0.067835 0.651319 -0.366438 -0.453667 -0.399980 0.722573 -0.749453 0.678570 -0.018507 -1.625986 -0.241618 -0.121967 0.643526 0.249205 0.582084 -0.216692 -0.097902 -0.360597 -1.044249 1.103068 0.194282 -1.086287 0.214753 -0.565405 0.015100 -1.022562 -1.441837 0.227967 0.551529 0.988802 0.804742 -1.070257 0.278065 0.203635 0.058513 0.126578 -1.403540 -1.179566 -0.713026 1.309827 0.279421 0.101162 -0.326025 -0.644013 -0.690937 -0.358853 0.167428 0.095250 -1.420575 -0.827482 -0.236697 0.356114 0.062391 -1.057484 0.514893 1.399118 0.242079 0.177424 -0.101888 -0.152847 0.078508 0.082651 -0.092912 0.023914 0.565733 0.880313 0.040889 -0.864838 0.026983 -0.816732 -0.240328 -0.387673 1.022982 -0.709809 -0.371762 -0.588957 -1.272840 0.375588 -1.080248 0.119583 -0.003133 -0.304944 0.510704 0.325048 -0.013538 0.752369 1.103779 0.068137 
portal 1.029733 0.234016 -0.272809 -0.005131 0.945301 0.576352 -0.472368 -0.030506 -1.322712 0.134114 0.978765 0.270984 -0.470318 -0.323556 -0.855094 0.575198 -1.209303 -0.321822 -0.316291 -0.427235 0.287894 0.950193 0.780022 0.068866 -0.363116 -0.894811 -0.308171 0.680469 -0.555133 -1.292139 0.505855 1.242700 0.627141 0.121919 -0.512766 0.010075 -0.535711 -0.602482 0.454222 0.559406 0.127130 0.061944 0.122060 -1.578219 0.941595 0.034494 0.016362 -0.058603 -0.416380 0.942761 -0.207489 -0.229311 -0.231956 0.315236 0.212067 0.425135 0.415470 0.202525 0.164554 -0.496208 0.325597 0.987644 0.363622 0.845279 -0.007952 -0.302366 -0.362003 0.103653 0.260620 0.210485 0.064498 -0.948099 -0.724916 0.182208 0.231733 -0.355797 -0.885297 0.721380 -1.159136 0.065520 -0.108657 -0.312245 0.815044 -0.013876 -0.940313 -0.074405 -0.758324 -0.120425 -0.418068 -0.211563 -0.237483 -1.230193 0.585116 -0.173642 0.286019 -0.356689 0.655056 -0.589446 -0.102937 -0.082830 
sprinter -0.690000 -0.984090 -0.548767 0.397507 0.284560 0.449801 -0.449870 0.486694 -0.450007 -0.564229 0.809020 0.600965 0.303131 0.057843 0.747055 0.335960 0.070975 0.258921 0.498267 0.179861 -0.012213 -0.103788 0.276915 -0.016442 0.343765 0.365689 0.271222 -0.323501 0.019637 -0.147440 -0.029911 0.743220 0.770186 0.338462 0.354914 -0.077906 -0.387331 0.336332 -0.335239 0.844755 -0.169420 -0.710083 -1.076904 -0.639507 -0.508325 -0.539878 -0.103829 -0.073915 0.525341 0.001752 -0.928638 -0.734174 0.558074 0.228345 -0.388755 -1.118546 0.241046 -0.236763 -0.277918 -0.126326 -0.587152 0.233806 -0.244121 0.317853 0.361375 0.719255 -0.678126 -0.623747 -0.355007 0.432719 0.539856 -0.188831 0.129505 -0.847445 0.137982 0.464390 -0.318210 0.669862 -0.047483 -1.261855 0.617854 -0.564219 0.149884 -1.091169 -0.312408 -0.992226 0.266277 0.069818 -0.203088 -0.530625 1.514755 -0.107235 -0.239434 -0.226432 -0.044668 -0.658781 -1.556412 0.024668 -0.512753 -0.304481 
geographical -0.087926 0.423717 -0.545040 0.189108 -0.792907 1.243832 -0.541820 -0.165472 -0.202280 -0.067695 1.345874 0.258403 -0.119601 0.055424 -1.299549 -0.469319 0.184440 1.267557 -1.311371 0.058047 0.846551 0.629000 -1.258944 0.037157 -0.601639 -0.863277 0.861698 1.327435 -0.846145 0.864054 -0.284727 0.106490 0.932724 -0.467174 -0.218635 0.875759 0.351995 -1.390190 0.077642 0.617282 0.093004 -0.147954 0.232195 -0.118034 -0.904978 0.371038 0.956857 0.107407 -0.147890 0.397085 0.212497 -0.245297 0.898866 0.582981 0.840275 0.167869 -1.271429 -0.834981 0.088098 -0.268565 -1.791576 0.249151 0.669850 0.039206 -0.394554 -0.901150 -0.525107 -0.144109 -0.546042 0.328562 0.460386 0.077591 0.341128 -0.289457 0.434093 0.785335 0.821349 -0.004668 0.671713 -0.132816 0.297979 0.602570 0.780640 0.697454 -1.226324 -0.533981 -0.217925 0.250920 -0.564031 -0.638281 -0.340386 0.354269 0.019060 -0.737122 0.489151 0.024633 -0.226476 -0.136785 0.812889 -0.670719 
profitable -0.891828 1.173213 0.310500 -0.297074 0.424628 0.660550 -0.753529 -0.414372 0.785359 -0.469601 -0.678074 -0.286780 -0.010114 -0.239916 -0.003055 -0.055184 0.625173 -0.178413 0.561357 0.288136 1.553666 0.132670 1.307453 -0.735056 0.018850 -0.122971 -0.124023 0.459407 -0.339109 0.167860 0.937192 -0.349721 0.518525 -1.722362 0.212491 0.971714 0.216348 0.665359 -0.270413 -0.145631 -0.453976 -0.092878 -0.023807 -1.505654 0.186124 0.406905 -0.645208 -0.759133 0.395744 0.138336 0.444212 0.645638 0.909013 1.225552 0.551796 -0.345035 -0.446076 -0.976034 1.220801 0.319218 -0.284260 -0.364366 0.055609 -0.683551 1.218188 -0.441983 -0.328774 -0.944454 -0.105294 0.524440 0.445140 -0.676567 -0.400141 0.218765 0.412528 -1.073841 -0.414361 1.077798 0.341111 -0.560856 -0.362670 -0.505944 0.513349 -0.152492 -0.257373 -0.485874 -0.465650 0.292126 -1.060046 0.225599 0.074718 -0.984778 -0.142943 -0.450616 -0.004399 -0.215984 0.838189 -0.299347 0.283635 -0.763349 
motivated 0.313540 0.262918 -0.820673 0.332081 0.961079 -0.031612 -0.469000 -0.146874 -0.009741 -0.410726 0.879783 -0.879229 0.156178 -0.169644 1.319586 0.457353 -0.203864 0.025978 -0.078853 -1.491125 0.172241 -0.207723 0.633872 -0.559233 0.199390 0.328754 -0.073135 -0.414523 -0.318524 0.367613 -0.292605 -0.024667 -0.380168 -0.244438 0.554720 -0.208314 1.078596 -1.189843 0.370098 0.742914 -0.465029 0.658664 -0.587188 0.179888 0.279518 0.282182 0.465240 0.393805 -1.127185 -0.408403 -0.234549 -0.640428 0.529876 -0.444616 0.633483 -0.110005 0.048812 0.420494 0.119741 -0.191276 -0.172311 -0.347436 1.154734 -1.523176 0.053977 0.963093 -0.406940 0.203141 -0.031346 -0.633826 -0.496535 0.125611 -0.854713 0.600322 -0.669800 0.414700 0.251226 1.740968 -0.193169 0.367833 0.905316 0.466982 -0.812517 -0.428420 -0.281907 -0.998882 -0.638434 -0.428646 -1.063895 -0.801699 0.478005 -0.379862 -0.289790 -0.980463 1.322394 -0.320483 0.116607 0.643918 -0.353415 0.553432 
growing 0.145367 0.380310 -1.284773 -0.271204 0.204607 1.076919 -0.171006 0.401464 0.197375 -0.580940 0.491566 -0.236218 0.782864 0.222865 0.265090 -0.261893 -0.547781 0.222089 -0.571670 -0.265447 0.389711 1.071010 0.070163 -0.109393 0.552734 0.238365 -0.141663 -0.372610 -0.628916 0.345321 0.655408 0.126500 0.162445 -0.222669 0.847372 -0.133381 -0.188412 0.278867 0.222002 -0.178048 0.496808 -0.648153 -1.424781 -0.168780 -0.260103 1.264915 -0.347917 -0.656154 -0.813125 -0.337115 0.131470 0.206512 0.550394 1.762428 0.356526 0.688705 0.411161 -0.027639 -1.214178 0.812053 0.686625 0.646801 -1.059572 0.050111 0.785815 -0.891192 0.841143 -0.031840 -0.653594 0.333139 0.349126 1.187224 -0.388814 0.402805 0.389085 0.115717 -0.201656 0.364824 0.550710 -0.122680 0.023568 -0.175604 -0.558232 -0.249044 -1.275764 -0.379497 0.089251 0.233473 -0.563355 -0.804003 -0.579454 0.409713 -1.661437 -1.047111 0.683392 0.551871 0.332441 0.271854 0.274177 0.911732 
overrun -0.679707 1.092819 0.236755 0.362860 -0.009991 0.387123 -0.744723 1.357716 1.138463 0.059848 0.183208 -0.446885 1.646764 -0.599583 -0.959704 -0.223974 -1.585179 -0.261233 0.175199 0.329754 -0.308244 0.052538 0.620367 -0.927499 -0.234976 -0.313872 -0.704927 0.590116 0.116316 -0.923007 0.239765 -1.160377 0.962365 -0.684142 0.447268 -0.407636 0.413487 0.402328 0.041044 0.156889 0.609025 -0.276903 0.192438 -0.209772 -0.537707 -0.050691 -0.554516 -0.165910 -0.698309 -0.509636 -0.362225 -0.311926 0.848038 -0.448940 -0.337208 0.187219 -0.196997 -0.155290 0.484861 -0.652338 0.666820 -0.805577 0.278528 -0.496784 0.007119 -0.125169 0.328458 0.736458 0.817710 -0.698991 -0.617407 1.387215 -0.392649 -0.916583 1.145028 0.500540 0.186442 1.330456 -0.277219 0.672899 0.057519 -0.519024 -0.372786 0.146862 -1.251739 0.042803 -0.749609 -0.236915 -1.540496 0.056536 0.539941 0.052903 0.052258 0.119872 0.127831 -0.065421 -1.117296 -0.163598 -0.448307 -0.377778 
tour 0.389289 0.178167 -0.582325 0.136636 0.100271 0.614359 -1.569908 -1.120662 -0.226776 -0.426681 0.273668 0.958790 0.217719 -0.196841 0.121213 -1.330666 0.549651 0.398507 -0.308045 0.701330 -0.063626 -0.680649 -1.136858 -0.753378 0.674207 0.808739 -0.292854 -0.598420 -1.410257 0.200798 0.505264 0.643677 -0.928841 -0.660508 0.433169 0.110979 -0.571078 -1.196358 0.213344 -0.369685 0.310881 -0.269265 0.924580 -0.151902 -0.026578 0.580318 -0.889973 -0.719624 -0.749054 0.253150 -0.328569 0.171926 0.141218 0.087168 -0.432766 -0.100076 -0.962573 0.435022 0.084563 0.054908 -0.662771 0.328697 0.318473 0.584406 -0.071710 0.060965 -0.299508 -0.226191 1.156690 0.224288 -0.504645 -0.094076 0.431452 -0.740726 0.343827 -0.569922 -0.263299 0.281007 -0.407698 -0.386478 -0.227454 -0.578401 0.724477 -0.244433 -0.215304 0.048000 1.493297 -0.664226 -0.219506 -0.734612 0.266030 0.209565 -0.189391 0.286454 1.343415 -0.074118 -0.038271 -0.260666 -1.127606 0.241012 
keller -0.161741 0.582422 1.189342 0.315321 -0.040757 0.250265 -0.425248 0.024193 0.463216 -0.570002 0.666808 1.205415 -0.416081 0.304122 0.281492 1.072798 1.175765 0.166364 0.657258 0.158395 -0.931772 0.835836 -0.756419 -0.988295 0.001757 0.761999 -0.000708 0.614266 -0.730711 -0.800974 0.117284 -0.077460 -0.156535 0.150304 0.403458 0.233495 -0.906731 1.164819 -0.339303 -0.145802 0.876254 -0.012124 -1.066532 -0.039274 -0.978599 -0.320379 0.309984 -0.040542 -0.864106 0.185628 -0.246815 0.772122 -0.202631 -0.361856 0.175664 -0.004198 0.397532 0.189679 -0.613487 -0.996960 0.804210 -0.385907 -0.052873 -0.754095 -0.520483 0.326791 1.349008 0.078436 0.774810 0.810172 0.828420 -0.660487 0.027421 -0.901671 -0.372938 -0.321683 0.436897 1.075569 0.329369 0.800039 1.002433 0.249808 0.769670 0.296494 -0.478730 -1.287324 0.429217 -0.826808 0.137887 0.218161 0.516638 -0.809882 0.032618 0.620671 0.592020 -0.190795 -0.159744 -0.370176 -0.391434 -0.019054 
singing -0.112636 0.083953 -0.349291 -0.026603 -0.362209 -0.196283 -1.086647 0.392376 -0.294522 -0.284105 0.387043 0.907999 -0.680723 0.108586 -0.375973 0.150094 0.279152 0.130670 0.115914 -0.542919 0.413879 -0.586174 0.023262 0.045509 0.106479 0.433170 1.056970 0.932288 0.251447 -0.049126 -1.062781 -0.081770 0.294860 -0.010071 0.685471 0.441973 -0.550269 -0.728523 0.146127 -0.092232 0.006311 -0.558591 -1.100879 -0.063563 -0.052304 0.388054 -0.412525 -0.273820 0.506288 0.148437 -0.534861 0.127871 0.647998 -0.042654 0.855230 0.701256 0.337569 0.800477 0.141555 0.828045 0.158361 1.085832 -0.077907 0.996300 0.860989 0.301775 0.217841 0.848923 0.207299 -0.052553 -0.055282 0.184838 0.136826 1.211826 0.115277 -0.692678 0.366661 1.021200 -0.174683 0.048736 0.910720 -1.232340 1.257199 0.225195 -0.389902 0.226860 -0.189088 -0.386384 0.609952 0.130698 0.367010 0.367385 0.029612 0.450987 0.632184 -0.193909 -0.059923 1.124830 -1.393854 0.733602 
emile 0.532828 -0.593394 0.594762 0.063039 -0.609306 -0.264691 -0.577521 -0.251159 -0.223619 0.082429 -0.115943 0.990856 -0.503148 0.859479 -0.031659 -0.346059 -0.452049 0.171159 -0.147524 -0.232485 0.308302 -0.001236 0.045006 -0.301456 -0.089701 0.396996 -0.391232 0.170197 -0.905647 0.250165 0.305491 0.021591 0.078361 1.065296 0.834059 -1.171409 0.813862 -0.187294 -0.002429 0.606309 0.106235 0.026339 0.136562 -0.745867 0.319343 0.204285 -0.332694 -1.156863 1.056892 0.573734 1.104696 0.196981 0.268448 -0.026169 -0.248818 -0.687720 1.208069 0.601190 0.090766 -0.893289 -1.004957 -0.445784 0.471317 -0.708596 0.487713 0.662996 0.097634 -0.229843 0.025302 0.368152 0.751113 -0.141464 -0.594100 -0.609169 0.616731 0.270780 0.962869 1.533565 0.202657 -0.367408 0.837547 0.401058 -1.104295 -0.321536 -0.421730 0.716223 -0.028617 -0.024435 -0.601023 0.016610 -0.673528 0.715687 -0.368768 0.966775 0.901250 0.768393 0.583246 0.428179 -0.264302 -0.719490 
basin 0.436895 0.545462 -0.517510 0.369334 -0.725262 0.276650 -0.026383 0.907203 -0.264643 -1.041977 0.557906 0.121872 0.058155 0.256956 -0.174923 0.285904 -0.161919 -0.291481 -0.287062 0.668807 -0.557476 -0.028650 -0.914627 -0.668961 0.080057 -0.357101 -0.341294 0.691744 -0.873718 -0.412297 -0.386192 -0.624652 0.193894 -0.205886 0.682091 1.209615 -0.467409 -0.075196 0.251323 0.281370 -0.479033 -0.459346 0.411332 -0.910300 -0.964138 -0.052446 -0.908471 1.334850 0.043246 -0.946866 -0.553756 0.635920 0.572514 -0.715230 -0.814080 0.393826 0.629110 -0.707639 -0.800556 -0.741524 -0.856609 1.018862 -0.098459 0.715608 -0.177424 -0.882467 -0.566546 0.631403 -1.123969 -0.943033 -0.047776 -0.026632 -0.465364 -0.245479 0.907959 -0.279453 -0.412374 -0.191370 -0.388973 0.209589 -0.352762 -0.022547 -0.736539 -0.130616 0.255813 -0.937762 0.077075 -0.546760 0.074934 -0.556738 -0.287896 -0.697114 0.525158 0.531551 -0.076775 0.358205 -0.726222 0.146371 0.019996 -0.191423 
