4
finance -0.068839 0.320613 0.421588 -0.498650 0.288860 0.097504 -1.300168 0.970004 0.628783 0.207709 0.110670 -0.448394 -0.146001 0.219340 0.026792 -0.655862 -0.134467 0.799004 -0.462603 0.074350 0.131193 -1.022206 0.276100 -0.672680 -0.273102 0.210053 -0.017563 0.080934 -0.988774 -0.243954 -0.281838 0.044769 -0.036622 -0.374207 -0.386288 -0.380944 0.249199 -0.177922 -0.698388 0.292885 -0.329425 0.482089 0.677859 -1.319140 -0.468173 0.027218 -0.532570 0.388563 -0.227874 0.140739 -0.469687 -0.594098 1.110434 -0.381261 0.095491 -0.404802 -0.399518 0.225224 -0.327605 0.498894 -0.970183 0.194242 0.054437 -0.333440 -0.398659 0.275737 0.290440 0.287205 0.322709 0.600096 0.326420 0.001664 -0.423304 -0.229735 0.131051 0.144573 -0.207937 1.738442 0.445919 -0.199328 -0.069071 0.104573 -0.780249 -0.959522 0.384630 -0.158547 -0.401317 0.112149 -0.906074 0.197835 0.624784 -0.086771 0.077596 -0.662303 0.566337 -0.384708 0.403781 0.261969 0.948701 -0.228808 
medicine -0.554271 0.629460 -0.492801 -0.332989 -0.121732 0.394617 0.158324 0.073716 0.786616 -0.125410 1.278813 0.365514 0.624879 -0.562599 0.242489 1.314275 0.124035 0.729351 -0.491950 -0.749271 0.352667 0.061887 0.371801 -0.155102 -0.558103 -0.613473 0.352032 0.029177 0.550009 -0.010047 0.524652 0.278740 0.718709 -0.063240 -0.170331 0.577417 -0.585530 0.053551 0.432998 0.033799 0.190973 -0.406360 -0.419107 -0.323687 -0.362536 0.331114 -0.358168 -0.477416 0.120394 -0.137767 -0.560919 0.896532 -0.076768 -0.020677 0.657731 -0.681064 -0.980552 0.251360 0.202380 0.863891 -0.046219 0.170123 0.078603 0.242757 0.463648 -0.164682 -0.727945 0.178838 -0.146692 -0.051200 0.087834 0.714363 -0.009393 -0.308265 0.261305 -0.289395 0.730962 0.751622 0.423313 -0.479182 0.734395 0.088914 0.159637 0.562347 0.627938 -1.199418 0.026539 -0.498529 -0.535426 -0.046325 -0.273737 -0.015717 -1.059516 -0.588255 -0.049672 0.584937 0.349547 -0.538458 0.127943 -0.356722 
sports 0.177268 0.482792 -0.000878 -0.015817 -0.053981 0.733229 -0.410954 -0.061394 -0.497932 -1.246518 0.157605 1.256112 0.691710 0.197343 -0.295017 0.019626 0.617692 0.151302 -0.104182 -0.420814 0.187808 0.110176 0.179935 -0.847955 0.281835 0.980082 0.400265 0.561449 0.408299 0.146975 -0.091950 -0.600345 0.294982 0.327680 -0.113696 -0.191785 -0.209156 -0.630998 -0.282187 0.216983 -0.702086 -0.170049 -0.274006 -0.790259 -0.064320 0.021944 -0.061321 0.136268 0.455939 -0.770421 -0.263065 -0.388480 0.356663 0.483089 0.582073 0.396189 0.174569 -0.211063 -0.157752 -0.253874 -0.234323 0.144603 0.761014 0.925101 0.499067 -0.162586 0.322244 -0.261519 -0.504496 0.521477 0.405885 -0.679075 0.008932 -0.327847 0.232056 0.004138 -1.075003 0.526829 0.022779 -1.209079 0.740079 -0.398035 -0.031224 -0.328435 -0.933038 -0.707237 0.122872 0.410288 -0.069835 -0.861094 0.135039 0.103556 -0.338813 0.209943 0.273362 0.006842 -0.364756 -0.166797 -1.010517 0.010478 
technology 0.118017 0.380331 0.776865 0.072754 0.712842 0.241737 -0.232885 -0.108767 -0.726864 0.247299 1.022446 0.323200 0.001559 0.373131 -0.641349 -0.226889 -0.022007 -0.331956 0.889709 0.368028 0.403324 0.828265 0.080872 0.665184 0.183537 0.200810 0.265723 1.014251 -1.027596 -0.444075 0.428991 1.243196 0.570584 -0.840219 0.005099 -0.034666 0.581864 0.111553 0.043147 -0.294107 0.672969 -0.528099 -0.466866 -1.151199 0.564048 -0.278842 0.620183 0.179704 -0.042317 0.280477 0.175358 0.405456 0.395946 0.934433 0.459759 -0.240086 -0.348668 -0.222407 1.177534 -0.895929 0.192841 0.803793 0.799915 -0.016786 0.588140 -0.412490 -0.640739 -1.332749 -0.200929 0.606902 0.210001 0.636028 -0.461763 0.560647 0.275516 0.216539 0.649859 1.038984 -0.662630 1.155907 -0.198823 -0.272893 0.483980 -0.220161 -1.363091 -0.171227 -0.544852 -0.046425 0.433789 -0.256558 -0.205167 -0.609437 -0.242631 -0.127497 0.086271 -0.019174 0.714416 -0.031130 0.171574 0.412176 
