11
cardiovascular_disease 0.619123 -0.264784 -0.296092 -0.926843 0.079581 1.186979 -0.534729 -0.572890 -0.585834 0.030819 -0.088695 -0.411017 0.728227 -1.302061 0.108778 -0.165967 0.247625 0.311936 -0.519705 0.083121 0.377596 -0.457707 0.205568 -0.788240 1.164104 -0.191122 0.803197 -0.503008 -0.926494 0.116228 0.375588 0.009575 0.345827 -0.358971 0.341248 -0.747897 0.024428 0.025446 0.653397 -0.029941 -0.998793 0.118088 -0.110686 0.245372 -0.488617 -0.621609 0.284938 -0.082859 -0.998250 -1.010194 0.273829 0.329521 -0.096899 0.744756 0.127616 0.319483 0.021280 0.236108 -1.297257 1.495731 0.087873 0.201515 -0.023928 0.709909 -0.542638 -0.692076 0.179715 0.255734 0.256430 0.240868 -0.810216 -0.900098 0.043036 0.152064 -0.522499 -0.359471 -0.821697 0.939810 0.229993 0.782712 -0.756909 -0.223405 -1.611970 0.995514 -0.277605 -0.504808 0.936876 0.164375 -0.619188 0.022654 -0.424653 1.080388 -0.367866 -0.026402 0.416431 -0.622603 0.681409 0.298704 0.329035 0.536136 
chronic_kidney_disease 0.871458 -0.571430 1.102141 -0.094139 -0.055774 0.093118 0.267379 0.066620 -0.698795 -0.354587 1.373757 -0.128652 -1.436965 -0.114738 0.221492 0.701795 0.098404 -0.565998 0.890329 0.141792 0.472238 0.148662 -0.178465 -0.161808 -0.031935 0.169993 0.029373 0.165431 0.672037 -0.307746 0.488646 0.128949 0.673725 -0.921547 0.309528 0.024635 -0.068624 1.122633 0.521335 0.959195 -0.809646 -0.112270 -0.397243 -0.463339 0.400381 -0.063106 0.577415 -0.693009 -0.209505 -0.321328 -1.138906 -0.400503 0.394055 0.491479 -0.886550 -0.884591 -0.180377 -0.553929 -0.115878 0.252049 -0.494021 0.162689 -0.382646 -0.565893 -0.193494 -1.381269 0.271062 -0.414158 -0.765846 0.023138 -0.272321 -0.136751 0.345682 0.128415 1.263523 0.099198 -0.482384 0.084223 0.326889 0.984197 -0.434787 -0.957701 -0.704827 0.128009 -0.259178 -0.101496 0.024524 0.780777 -0.750301 -0.016601 0.683945 -0.016056 -0.971227 -0.360490 1.386117 -0.868931 0.527343 0.236395 0.034908 -0.385479 
mental_disorder -0.384780 0.199701 0.124624 -0.029654 0.615132 0.321811 -1.230785 0.189475 -0.116284 -0.833999 0.845358 0.488122 0.317897 -0.722450 0.810958 -0.028065 -0.135118 0.556106 -0.280020 0.151428 0.466308 -0.238453 0.050348 0.259280 0.740092 -0.516787 0.560314 -0.101030 -0.111539 0.371991 -0.035340 0.456768 -0.392024 -0.380501 -1.002370 -0.064186 -0.018704 -0.244731 -0.853028 1.166138 0.194924 -0.311222 0.372114 0.668578 -0.078222 0.891171 1.026942 -0.398289 -0.166042 0.888372 -0.343460 -0.527022 0.433031 0.021675 0.349567 0.508773 0.626967 0.478480 0.045295 0.725720 -0.715009 -0.261908 -0.076643 -0.973593 0.728707 0.277692 0.031872 0.838653 -0.041309 -0.133124 -0.071972 0.981698 -0.536016 0.264720 -0.589301 0.576985 -0.483871 0.608971 0.538933 0.687978 0.415101 -0.342950 0.402775 -0.344966 0.577007 -0.879184 -0.696844 -0.056581 -1.249196 -0.792143 0.396272 0.369140 0.068674 0.181219 1.574783 -0.418905 0.637365 0.338124 0.128783 1.174800 
musculoskeletal_disorder 0.193443 -0.267583 -0.013335 -0.327230 0.426017 0.342285 -1.097005 -0.965226 -1.562235 -0.897660 0.844409 0.687122 -0.595351 0.084370 -0.466651 0.057195 0.456732 0.835077 -1.271134 0.589573 0.549318 -1.056479 0.069731 -0.350050 -0.153789 -0.893985 -0.704357 -0.190748 -0.402275 -0.344877 0.448419 -1.820358 0.494935 -0.955901 -0.039121 0.451877 1.341055 -0.627263 -0.186666 0.075888 -0.487286 0.516014 -0.761383 -0.563340 -0.596565 -0.042311 0.117776 -0.690549 0.655448 -1.084557 0.293379 -0.873215 0.528814 -0.112569 0.248222 -0.392698 0.332927 0.673125 -1.330662 -0.494419 -0.098763 0.252612 -0.156465 0.415308 -0.223833 -0.064081 -0.927034 -0.345131 0.901807 0.206097 1.067419 -0.279036 -0.386150 0.447891 0.627450 -0.438896 -0.358699 0.019310 0.130094 -1.237412 0.796607 0.418157 0.018539 0.235932 -1.360992 -0.089833 -0.726415 -0.047385 0.162972 -1.163130 -0.975380 -0.201530 -0.259467 -1.084829 -0.110670 1.009590 0.446248 0.486037 1.177707 0.429127 
neoplasm -0.257439 -0.604440 -0.571421 -0.079030 0.277221 0.369148 -0.082423 -0.248097 0.207553 0.290789 0.561270 0.173752 -0.626400 -0.237591 -0.038451 0.332954 -0.619554 -0.377246 -0.250384 -0.677819 0.460909 -0.338382 -0.296237 0.085828 0.343809 0.848983 -0.066978 0.520753 0.205098 0.204708 -0.036406 0.714219 0.227581 0.130084 0.069584 0.122049 0.046445 -0.760808 0.098226 -0.506589 -0.458485 0.208301 -0.796582 1.008896 0.605155 -0.397170 0.006507 -0.346378 0.411888 -0.019771 -0.784960 -0.747275 0.134209 0.622784 0.378916 -0.133272 0.275099 0.497324 -0.179558 0.336853 -0.461314 -0.787305 -1.186489 1.080181 -0.443630 -0.791291 -0.773104 -0.473899 -0.616183 0.182869 -0.626324 0.756155 -0.169131 -0.461364 -0.368093 -0.009558 -0.130878 0.585894 0.116469 -0.900843 -0.059318 0.004416 0.482004 0.990231 0.621367 -0.340797 0.145513 -0.405522 -0.945772 0.559868 0.778363 -0.208155 0.487730 -1.021118 -0.510576 0.658335 0.320271 -0.161506 0.533747 0.308367 
neurological_disorder -0.356836 -0.636365 0.211655 -0.702579 1.427420 0.996296 -0.372983 -0.092157 -0.044950 0.813276 0.473538 0.941218 0.750379 -0.110130 -0.527401 1.083806 1.781655 0.567162 0.913649 0.323904 0.141165 0.426190 0.839029 0.079358 -0.632013 0.259187 0.357497 1.261180 0.905088 0.196074 0.466611 1.213006 0.036431 0.039884 1.026655 -0.194821 0.365994 0.173404 0.558494 0.357437 1.249688 0.070691 0.222706 -0.304280 -0.207330 -0.122523 0.418919 -0.029776 0.089352 -1.529763 0.079752 0.722237 1.194319 -0.896044 0.520847 -0.418865 -0.680893 0.350444 0.171350 -0.170481 -1.194134 -0.528184 0.552132 0.314752 -0.417971 0.859516 -0.463985 -0.620959 -0.324631 -0.034427 0.265524 -0.145548 -0.567596 -0.503201 0.020053 -0.254999 0.595340 1.309159 0.513706 0.100912 1.157729 0.116497 -0.005582 -0.622302 0.334332 -0.293839 0.268176 -0.413423 -0.655761 0.309305 -0.200375 -0.577522 0.124002 0.516541 0.130608 0.821031 -0.243933 -0.408299 1.008566 1.033514 
spread_depolarization 0.670428 -0.408126 -0.859394 -0.386850 0.363009 -0.453314 0.833229 0.880006 -0.235356 -0.334394 1.342513 -0.704031 0.156478 -0.763518 0.666895 0.171378 -0.666998 0.363460 0.203585 0.557471 -0.575910 -0.204292 0.211942 -0.117893 1.056614 -0.497330 -0.061520 0.677368 0.357715 0.607393 0.417585 -0.795807 0.063911 0.470022 -0.608398 0.760830 -0.405161 0.500551 -0.178468 -0.611365 0.140339 -0.326295 0.201934 -0.742841 0.126566 -0.344122 0.273309 1.305451 -0.326346 0.588642 -0.362610 0.279459 0.760188 0.263932 0.755005 -0.588730 0.633863 0.931716 0.738451 -0.305913 -0.647785 1.015811 -0.209309 0.067684 0.403294 0.769496 -0.142061 0.376733 -0.161871 0.417087 -0.504714 -0.155444 1.362367 -0.294934 0.717604 0.932751 0.242018 0.142092 -0.099606 -0.574301 0.664142 -0.160274 -0.924084 0.742753 0.217539 -0.255736 -0.252702 -0.808108 -0.200288 -0.044023 0.352495 -0.165424 0.590348 0.446513 -0.672002 0.554334 -0.286943 0.413741 -0.107516 0.268087 
iron_deficiency_anemia 0.425561 0.345643 -0.789682 -0.128577 -0.731075 0.147168 0.071951 0.504704 0.627198 -0.523474 -0.339720 0.006159 0.410957 1.037126 -0.683922 0.445959 0.938291 0.269426 -0.233939 -0.131685 -0.055101 -0.150415 -0.065278 -0.660417 -0.617182 -0.168368 -0.650490 0.328472 0.104595 -1.368831 -0.387589 -0.272077 -0.676927 0.667242 -0.414892 0.555967 0.884385 0.579367 0.930592 0.138699 -0.241268 0.131758 -0.098167 -0.582193 -1.304839 -0.019334 -0.603245 -1.060502 0.373863 0.818706 0.224026 0.155927 -0.101558 0.038635 -1.301874 -0.249362 -1.158801 0.441897 0.321710 0.427145 0.707494 -0.104050 -0.923737 0.417646 1.579498 -0.465859 -0.406417 0.300421 -0.182444 -0.830120 1.144808 0.906905 -0.129913 -0.896407 -0.231604 -0.016194 -0.410785 0.829736 0.056785 0.931949 0.316411 -1.638702 -0.488787 1.307456 0.143489 -0.344272 0.314456 -1.124226 -0.625038 -0.430989 0.256513 0.474004 -0.203226 -0.537931 -0.971181 0.468016 -0.718594 1.028429 -0.978860 -0.631050 
capital_city 0.957616 1.182827 -0.213463 1.043287 0.732067 0.382527 -0.481020 -0.512465 0.087463 -0.344069 0.403329 -0.088571 0.055017 0.894750 0.044918 -0.821498 -0.506546 1.413269 -0.601199 -0.377916 -0.257009 1.667477 -0.850166 0.047509 0.233867 0.848658 0.181371 0.227740 -1.589085 -0.203099 -0.074645 0.834137 -0.311907 -0.453349 1.178954 0.017110 -0.787522 -0.254556 1.316793 0.450184 -0.677543 -0.326798 -0.569786 -0.105696 0.415056 0.482260 -0.569418 0.244286 -0.210941 0.319985 -0.691517 -0.128106 -0.609133 -1.006443 1.467307 0.072585 -0.330062 -0.526045 0.128957 0.311264 0.467365 -0.166534 -0.219047 -0.185523 -0.528196 0.163143 -0.612480 0.456186 -0.057567 0.221504 -0.115080 -0.203765 -1.131298 0.517141 0.779643 -0.644038 0.560003 0.244409 0.010394 -0.190419 0.632385 -0.131637 0.228877 -0.352595 -0.675012 -1.174716 -1.319394 -0.417919 0.207310 0.509741 -0.250919 -0.100335 -1.006948 0.331329 0.437676 0.600397 -0.669399 0.484286 -1.241502 -0.535496 
population_density 0.135310 0.570625 -0.460662 0.338707 -1.897719 0.486680 -0.284864 0.837661 0.417099 0.000343 0.270736 0.201436 0.465604 0.044109 -0.660202 -0.799456 -0.106768 -0.129611 -0.761259 -0.676207 1.104660 0.540426 -0.255256 -0.786981 0.595107 0.363569 1.200773 0.680054 -0.751960 0.485247 0.849266 0.317972 0.072024 0.448808 -0.188062 0.749625 0.249402 -0.980439 -0.702680 0.194996 0.635023 0.739842 -0.736204 -0.559705 0.293103 0.711583 0.105517 0.689914 -0.059986 0.205675 1.092636 0.615662 0.638070 0.759092 0.170449 -0.608940 -0.439358 -1.440918 -0.967102 0.495169 -1.275992 1.467415 0.700584 0.132029 0.731938 -1.258549 0.008983 0.287672 -1.042858 -0.402272 0.577580 -0.228723 1.037944 -0.160675 0.625889 0.744185 0.226466 0.716184 0.335647 -0.853305 -0.793551 0.381872 0.788929 -0.395578 -0.402172 0.151582 0.186784 0.011526 -0.007258 -0.421295 0.139433 -0.714254 -0.476876 -0.851860 0.386912 -0.293110 0.114811 -0.569572 0.157233 -0.203153 
blunt_trauma -1.288796 1.661248 0.759795 0.402021 0.643094 0.434802 0.637112 0.224824 0.095766 0.984128 0.808446 0.630910 0.417203 -0.196371 0.592987 0.624575 -0.925014 -0.524255 0.041482 -0.216259 0.515681 -0.988942 0.887962 -0.307616 -1.038457 0.065740 -1.019913 0.108479 -1.286098 -0.527533 -0.091885 -0.629147 1.115104 -0.142199 0.167580 0.500008 -0.734980 -0.178460 0.096427 -0.106799 -0.582646 -1.169509 0.262988 0.027002 0.208013 -1.149993 -0.838333 0.459345 -0.422139 -0.578695 -0.690155 0.506128 -0.271853 0.307669 -0.996783 0.301493 0.422887 0.559643 0.584372 -1.050516 -0.234830 0.690817 0.522812 0.963808 0.431003 -1.004404 0.005413 -0.385164 -0.303248 -0.329002 -0.464738 0.464820 0.252324 -0.821697 -1.067909 -0.308196 0.826297 1.220275 -0.303448 0.066503 -0.365116 0.414625 -0.246238 -1.754047 0.490556 -0.355124 0.217091 -0.452752 -0.771685 -0.412711 -0.289062 0.640693 -1.091595 0.241146 0.294024 0.264013 0.586419 -0.166893 -0.309110 -0.510238 
