10
seafood -0.360207 0.712072 -0.130553 -0.549006 -0.368423 0.887535 -0.185487 0.066500 -0.311747 0.470279 0.752761 -1.114661 0.496513 0.334309 -0.011759 0.039561 0.161292 1.046241 -0.560830 0.318167 0.830416 -0.311157 0.225858 -1.028736 0.018769 -0.068256 0.197689 0.962803 -0.686713 -0.273772 0.567688 0.410514 -0.242313 -0.784780 1.662290 0.438282 -0.450837 -0.086782 -0.465242 0.130111 0.197029 0.186999 0.754189 -0.031824 -0.409553 0.313587 0.226934 -0.028855 0.087400 -0.896667 -0.820080 0.265427 0.576029 -0.823652 -0.355813 0.557437 0.556098 -0.425513 -0.618593 0.012387 -0.722824 0.429428 -0.803018 0.180081 -0.550354 -0.227465 0.559230 -0.789452 -0.353073 0.305594 -0.367159 -0.981092 -0.000863 0.120450 -0.113838 0.251163 0.934501 -0.184635 -0.288348 -0.449579 -0.029493 -0.938012 -0.098319 -0.238090 -0.887725 -1.014458 0.237909 0.339704 -0.236832 -0.976928 0.513623 -0.493408 -0.004337 0.574369 -0.653678 -0.192892 0.126205 -0.468828 0.209334 0.270887 
burger -0.417446 1.080876 -0.048512 -0.870949 0.004455 1.233958 0.007442 0.384754 -0.324221 -0.415452 0.066739 0.124882 0.004906 0.367089 -0.361227 0.048869 0.398143 -0.849547 0.663937 -0.191915 1.104307 0.266330 1.444101 -0.860635 0.906493 -0.782566 -0.680834 -0.169869 -1.240638 -0.812187 0.056189 -0.076565 -0.011793 -0.090356 -0.825671 0.203080 0.467164 0.124325 -1.356692 1.224371 1.176696 -0.519625 -1.377752 0.455049 -0.592091 0.376287 0.427154 -0.646573 -0.163658 -0.132487 0.148580 0.528721 -0.379984 0.036435 0.321971 -0.471831 0.141351 -0.316311 0.041923 0.301955 -0.143717 -0.571233 -0.624768 0.799060 -0.258780 0.389166 0.667617 -0.114181 0.432231 0.600571 -0.124113 0.733391 -0.255393 -0.413279 0.541762 -0.774484 -0.384222 1.078633 0.757357 -0.158763 0.081629 0.972749 0.291785 1.191898 -0.360033 -1.078244 0.368434 -0.592448 -0.357890 -0.081518 -0.654110 -0.225888 0.312263 0.168526 0.638742 -0.466856 -0.095775 0.119360 -0.110202 -0.969002 
sushi -0.156763 -0.154858 -0.119313 1.322266 -0.048531 -0.164498 -0.658701 0.310869 0.175086 -1.371788 0.997865 0.312874 0.980052 0.205440 0.186119 -1.140405 -0.347057 0.209545 -0.367834 -0.266366 0.785478 -0.483167 0.137887 -0.399173 0.345548 -0.211912 -1.140855 0.344554 -0.167568 -0.427104 0.329195 0.020245 -0.659685 -0.108413 1.012012 1.151570 0.034496 -0.800534 0.150792 0.194735 -0.566716 -0.732142 -0.042851 -0.277953 0.526973 -0.013411 0.278213 0.548528 -0.124092 0.112962 -0.115398 1.190684 0.050811 0.840630 0.082051 0.267716 0.695815 -0.910261 -0.110492 0.560584 0.237916 -0.580142 -0.154318 1.063588 -0.342173 0.269116 0.019988 -0.615912 0.246118 0.320892 0.289781 0.498043 1.232050 0.827432 -0.534956 0.250855 0.430325 1.533030 -0.138922 0.956565 0.426181 -0.367784 -0.391447 0.331543 -0.147460 0.229368 -0.214567 0.323885 0.525802 -0.276739 0.001003 -0.416207 -0.051254 0.380191 0.050196 -0.007771 0.576986 0.207662 0.230078 -0.106727 
chinese_food 0.459484 0.222173 0.094815 -0.083733 0.001918 0.070349 -0.513196 -0.603479 -0.151619 0.100270 0.538060 -0.184527 -0.066549 0.158951 0.122629 -0.454149 -0.106486 0.502329 -1.599561 -0.857706 0.049112 0.388855 0.268346 0.443392 0.453693 -0.048063 0.018082 0.340322 0.167053 0.165576 0.237943 0.465977 -0.455549 -0.349446 0.190898 -0.366219 0.615671 0.491303 -0.193746 1.263157 0.181082 0.449098 -0.282038 -0.102414 0.562893 -0.200535 -0.253867 0.302058 -0.188829 -0.610828 0.067797 0.254335 0.233784 -0.519199 1.192098 0.587055 0.241337 -1.094671 0.001551 0.141717 0.269993 0.609345 -0.527505 -0.292504 -0.989780 -0.251348 -0.227499 -0.859425 -0.641652 -0.175931 -0.130826 0.763698 0.725168 0.355928 0.600822 0.061617 0.506978 1.755352 0.748411 -0.206189 -0.310631 -0.139021 -0.145061 0.100487 -0.500122 -0.193998 -1.347149 -1.051085 -0.194238 0.003617 0.203968 -0.243728 -0.253591 -0.282813 1.089042 -0.446448 -0.822656 -0.211627 -0.845011 -0.301401 
dessert 0.860684 -0.671486 -1.443849 -1.297711 -1.058242 0.757126 -0.491183 -0.136375 0.201179 0.495242 -0.106143 1.073309 -0.312787 0.241522 -0.708326 -0.302551 0.185935 0.916102 -0.736299 -0.495339 -0.373735 -0.020617 0.497586 -0.183515 -0.040960 -0.008915 0.311259 0.495799 -0.135256 0.126977 0.840189 0.838542 1.077021 -1.549232 0.600812 0.915651 -0.838086 -0.741000 -0.012938 -0.064263 -0.348650 -0.550188 -0.484608 -0.976619 0.366484 0.231098 -1.098650 -0.798611 0.194909 0.359910 -0.410655 -0.255942 0.387176 0.589694 -0.523839 -0.059889 0.069242 0.638236 0.621618 0.630597 0.269485 -0.320223 -0.178046 -0.271314 0.447926 -0.049711 0.947531 0.023304 -0.016829 -0.493730 0.298400 -0.421038 0.058115 0.742314 0.607132 -0.657828 0.199196 1.038143 -0.803684 0.530046 0.080798 -1.555710 0.355217 0.885181 -0.160608 0.094208 1.266894 0.070500 -0.479934 0.151026 -0.116465 -0.056602 -0.149263 -0.446780 0.797408 -0.412268 0.202599 -0.472872 -0.328304 -0.100765 
markus 0.604115 0.492253 1.266153 0.480437 -0.121433 0.052564 -0.725155 0.224556 0.745348 0.534499 1.245491 1.255270 -0.402782 -0.320089 0.022108 1.143079 0.212193 -0.015046 0.505036 0.089279 0.158581 0.394534 -0.006800 -0.180740 0.052735 0.995062 -0.630969 0.652363 -1.095369 0.110612 -0.341961 0.704611 0.037674 -0.140946 -0.183942 0.437779 -0.000072 0.183639 0.392083 0.031608 0.800127 -0.198711 0.219607 -0.191284 -0.104224 -0.371909 -0.441324 -0.234113 -0.776513 0.527223 0.544593 0.504162 -0.130493 0.453945 -0.663744 -0.811117 0.062184 -0.031237 -0.287395 0.024118 0.140145 0.120402 0.851994 -0.069351 -0.368340 0.376580 0.966314 0.031199 0.418373 0.348805 0.304871 -0.366245 -0.564019 -1.168219 -0.409012 0.279324 0.760711 0.741790 0.099481 0.877934 0.881550 -0.701103 -0.100975 0.529485 -1.230312 -0.464950 0.094996 -1.335405 -0.202730 -0.077791 0.720993 -0.956548 0.145334 0.385153 0.934690 0.105899 0.127003 0.979628 -0.418774 0.490950 
intricate -0.531068 -0.297624 -1.121315 0.681159 0.788013 0.284427 -0.463526 0.156286 -0.244664 0.682951 1.186723 0.159721 -1.045653 -0.892756 -0.596255 -0.105353 0.030567 0.352428 0.657814 -0.431986 0.424353 -0.371858 0.381947 0.135015 0.111737 0.345121 -0.243295 0.759933 -0.170944 -0.154119 0.278796 -1.414620 1.327254 0.389303 -0.089371 0.156486 0.420500 -0.158168 -0.740486 0.492793 -0.120441 -0.571553 -0.605414 -0.174998 0.464094 -0.179230 -0.679347 0.032437 -0.208198 0.467176 -0.108929 -0.304495 1.002175 0.841014 0.625953 1.164074 0.292162 -0.353188 -0.141735 -0.713059 0.204935 1.178204 -0.190157 0.303029 0.086941 0.070388 -0.014693 0.695305 0.422444 -0.172669 -0.438620 -0.190447 -0.248241 0.015859 0.048777 -0.555159 0.295271 0.071705 -0.222673 -0.113948 0.054900 0.239985 0.343256 0.282707 0.113368 -0.278936 -1.201065 0.716491 -0.237567 -0.156750 0.141978 -0.561671 -0.437282 0.098245 0.662320 0.307038 0.075501 0.425710 -0.405768 1.174495 
belly -0.592552 1.086096 0.521290 -0.013850 -0.097182 0.832419 -0.212559 -0.202552 -0.029725 -0.240849 -0.355194 -0.093221 0.958652 0.220535 -0.067745 -0.019617 -0.592953 0.244928 0.871728 -0.865660 0.381246 -0.742782 -1.019547 -0.925114 -0.143438 0.023155 0.304706 0.511008 0.538468 -0.020814 -0.168931 -0.493918 0.593186 -0.012176 1.335508 0.279747 0.124179 -0.139406 -0.437552 0.845873 -1.511215 1.049558 -0.867104 -0.615776 0.232189 0.873081 -0.307661 -0.388780 0.548910 0.880625 0.041599 0.727535 0.281304 0.224454 -0.009451 0.447156 0.221378 0.645939 0.156965 0.471983 -0.102810 0.750325 0.282460 1.389985 1.392731 -0.702216 -1.075921 -1.336781 -0.060430 -0.440038 -0.749426 -0.070054 0.381093 0.326776 0.392082 -1.177949 0.460732 0.309043 0.509735 0.560890 -0.471032 -0.221290 -0.163303 1.305606 -0.062134 -0.783658 -0.286233 -1.668951 -0.452091 -0.275787 0.133299 0.374345 -0.801448 -0.590136 -0.206933 0.638529 1.063627 -0.580821 -1.162991 0.146655 
stevens 0.109968 1.210424 0.082308 -0.824245 1.018612 0.050053 -0.698435 0.649863 -0.002273 0.029011 0.338748 0.917774 -0.213569 0.687591 0.512144 -0.188918 0.387348 0.401694 -0.011103 -0.171833 0.559008 0.373442 -0.493056 -0.412099 -0.574976 0.282088 -0.144200 0.033058 -0.230271 -0.362003 0.023803 -1.027551 -1.072903 -0.136262 0.432054 0.166376 -0.427925 0.486497 0.631089 -0.295330 -0.252291 0.829648 -0.629799 -1.029604 -0.658944 -0.399828 -0.114675 0.128016 -0.199357 -0.232395 0.432084 0.246009 0.518578 -1.186093 1.330107 0.131440 -0.006484 1.224708 -0.411958 -0.754728 -0.161607 -0.309554 0.276373 0.494224 1.016548 0.586410 -0.175066 -0.028767 0.284514 1.027458 -0.147023 -0.030722 0.104382 -0.486816 -0.833761 -0.688568 -0.971160 1.356668 -0.551228 -0.335722 1.092152 0.133377 -0.016935 -0.106451 0.224167 0.233573 0.203156 0.465114 0.254518 -0.638220 -0.783967 0.079797 -0.189163 0.843132 0.544508 -0.098947 0.412901 -0.450552 -0.263935 0.252456 
british 1.315606 0.736307 -0.273318 -0.358490 0.112334 0.709740 -1.164567 -0.317266 -0.511273 -0.761279 0.233051 0.624850 0.437712 -0.448532 -0.626854 -0.474735 0.488155 1.040008 -0.083350 1.312615 -0.505637 -0.505275 0.363507 -0.831475 0.114971 0.212306 1.004539 0.177378 -1.502577 0.010458 0.379875 -0.230815 0.294940 -0.416981 0.043591 0.055922 -0.139862 -0.420424 0.971746 0.527964 -0.381930 -0.459617 0.263947 0.677700 -0.557428 0.083693 0.303990 -0.039990 -0.119760 -0.016129 0.106550 0.623871 1.017614 0.802482 0.488048 -0.819353 -0.800500 -1.032407 0.174669 -0.111696 -0.201759 -0.619393 0.281735 0.627740 -0.337658 -0.266286 -0.571795 1.001719 -0.403160 0.789466 -0.350711 -0.017810 -0.104959 0.137863 0.676727 -0.064047 0.838154 0.192904 -0.398606 -0.502796 -0.113037 1.184608 -1.004483 -1.393657 -0.253155 0.573299 -0.943002 -0.469977 -0.170164 -1.123670 -0.310092 -0.063244 -1.386997 0.497096 0.364816 -0.658011 -0.075590 0.065409 -0.040317 -0.668726 
