10
educational_institution 0.152352 -0.338951 -0.007716 0.619348 0.088361 0.275474 -0.721599 -0.518882 -0.247647 -0.829944 1.557439 1.331105 1.075081 -0.224553 0.763007 0.100683 -0.444035 -0.033626 -0.208060 -0.929850 0.546233 -0.351195 -0.038345 0.384241 -0.675037 0.172053 0.509516 0.489758 -0.289436 0.171574 0.292880 0.402390 0.559271 0.152783 0.484803 0.393315 0.240279 0.047478 0.107725 0.755328 -0.421534 0.006007 0.203781 -0.722189 0.592824 0.190984 0.085908 -0.404663 -0.183494 -0.121388 -0.007324 0.975438 0.023801 -0.595550 0.744669 -0.067977 -0.548139 0.664554 -0.433706 1.120546 -1.267411 0.118661 0.863481 -0.000384 0.221651 -0.409529 -0.882058 -0.344406 -0.177200 0.150022 0.039061 0.215004 -0.553956 0.095222 1.212137 -0.805699 0.564758 0.908151 0.263254 0.926499 -0.113237 0.564690 0.716408 -0.824730 0.083060 -0.768980 -0.767285 -0.914955 0.032950 0.332385 -0.061848 0.001545 -1.533262 0.044501 -0.167085 0.530974 0.673272 -0.123175 -0.211533 0.008878 
artist 0.045167 -0.008953 0.051711 0.371250 0.281924 0.685252 -1.164636 0.405142 -0.044186 0.141933 0.980723 1.397484 -0.451133 -0.190968 0.047658 -0.119664 0.114532 0.315363 0.068911 -0.409349 -0.173630 0.181953 0.287791 0.936797 0.069337 0.261010 0.457719 0.248912 -1.046853 0.111920 -0.530219 -0.111852 -0.393164 0.580638 -0.530557 0.160876 -0.420643 -0.004706 1.168564 0.404008 -0.617857 -0.262379 -0.302066 0.044185 0.073076 -0.837452 -0.481816 0.433727 0.736839 0.519048 0.060228 0.922388 -0.091536 0.233295 1.002310 0.825316 0.916667 -0.855570 0.522133 -0.342979 0.494898 -0.333277 0.373373 -0.028237 0.056488 1.330112 0.690240 -0.121480 -0.193246 -0.631302 0.528959 -0.641693 -0.414381 -0.315118 0.049524 -0.937221 0.079923 -0.182050 0.175394 0.432398 0.266212 0.025340 -0.646991 0.020509 0.383659 -1.078783 -0.399788 0.378287 -0.348838 -1.083784 -0.034705 -0.545465 0.263894 -0.178744 -0.363821 0.530150 0.609962 0.546986 0.381105 0.010026 
athlete -0.136162 -0.342941 0.328680 0.583589 -0.481430 -0.011825 -0.877876 -0.199275 0.234456 -0.665070 0.297993 0.494336 0.593833 0.023731 -0.221324 -0.072962 0.059325 0.351655 -0.006232 -0.088569 0.088543 0.259090 -0.464238 -0.042860 0.308087 0.791515 0.468397 -0.363513 -0.434235 -0.250175 0.154614 0.443007 1.011617 0.738539 -0.140337 0.139800 -0.362011 0.326134 0.061926 0.407545 -0.083750 -0.797468 -0.866480 -0.741513 -0.507752 -0.559577 -0.155147 -0.754948 0.018031 0.333837 -0.546309 -0.440903 0.397693 -0.021351 -0.051661 -0.070607 -0.118895 -0.659143 -0.614261 -0.152848 0.074357 0.137319 0.071893 0.140008 -0.004787 0.820134 -0.530864 -1.113082 -0.062091 -0.097920 0.368805 -0.354985 0.020296 -0.618258 0.292552 0.018952 -0.367651 0.530131 -0.388400 -0.580425 0.323785 -0.074461 -0.294584 -0.430008 -0.913714 -0.999108 0.626533 -0.482259 -0.236883 -0.748556 0.906554 -0.058802 -0.363248 -0.096228 0.276207 -0.253274 -0.457195 0.472605 -0.288881 -0.426922 
company 0.207258 0.962715 1.358443 -0.528890 1.080580 0.316471 -0.019589 0.634810 0.343631 0.373197 0.953663 0.039669 -0.367209 -0.114908 -0.327249 0.598721 0.403287 -0.179528 0.580011 1.625341 0.761324 0.289326 0.328085 -0.660827 -0.292420 -0.559911 0.747934 1.111030 -0.555896 -0.556480 0.148009 0.314306 1.212245 -0.892215 -0.106418 -0.065749 0.127767 0.118948 -0.054019 -0.090681 0.264634 0.193896 -0.031277 -1.327464 -0.181526 0.088349 -0.686776 0.176778 -0.230205 0.153043 -0.351213 -0.099101 0.324594 0.627577 0.253023 -0.985175 0.252939 -1.261723 1.382269 -0.149607 -0.120392 -0.190420 -0.406754 0.107971 1.444562 -0.223008 0.092655 -0.830489 -0.069828 -0.246028 0.218893 0.231707 -0.474731 0.452513 0.477279 -0.319992 -0.518149 0.951327 -0.474006 -0.301428 -0.719306 -0.781009 0.493268 -1.091331 -0.069114 -0.645292 -0.961509 -0.547597 -0.602231 -0.698846 0.368820 -1.216002 -0.989616 -0.087618 0.428474 -0.073803 1.124531 -0.074154 1.215320 -0.771201 
plant 0.617595 0.091221 -0.655136 0.274527 0.004758 1.206190 -0.381116 1.293492 -0.595284 1.075377 0.248215 -0.381885 -0.472688 0.111216 1.118533 0.588715 -0.064188 -0.035705 -0.594522 -0.278871 -0.234118 -0.632074 0.362214 0.075968 -0.055307 0.736357 0.388435 0.834812 -0.128648 -0.329640 0.587391 0.503059 0.742538 -0.677659 -0.166605 0.778733 -0.303664 0.026880 -0.455629 0.097605 0.543924 -1.353712 0.217610 0.210564 0.220351 0.448439 -0.456849 0.575201 -0.108958 -0.243808 0.011837 -0.460219 0.235637 1.235381 0.516828 -0.430133 1.042027 -0.819983 -1.416435 0.276641 -0.501248 1.248979 0.177460 -0.026549 0.612776 -0.450967 0.307765 -0.393581 -0.013872 -0.111311 0.881348 1.250874 -0.640046 0.509849 0.140525 0.044482 -0.107890 0.623589 1.006006 -0.141146 -0.195247 -0.710452 0.193374 0.763367 -0.112952 -0.096510 0.832509 -0.290788 -1.244487 -1.298706 0.068942 0.836821 -0.300188 -0.678695 0.008002 0.438788 0.714222 0.350295 1.507156 -0.790540 
village 1.636351 -0.434653 0.194942 0.233775 -0.178402 1.223249 -0.000679 0.555525 0.099125 -0.150176 0.161017 0.424482 -0.201948 0.950356 -1.928534 -0.285452 0.101922 -0.293087 -0.754603 0.542719 -0.805585 -0.228540 -0.284079 -0.760025 0.990281 -0.412613 -0.709129 1.289395 0.950377 0.543614 0.339400 -0.466885 -0.027468 0.422751 0.017997 0.778299 0.620773 1.137936 0.982473 0.894423 -0.972355 -0.560594 -0.660354 -1.133381 0.278348 0.320730 0.436756 0.834592 -0.177278 1.285143 1.118703 0.729499 0.833677 -0.119088 1.242668 -1.582978 0.032077 0.854670 -1.362658 -0.044904 -1.472366 0.349669 -0.442649 -0.083341 1.230513 -0.308697 0.557329 -0.127246 0.937244 -0.842594 -1.689139 0.400481 -0.333130 0.306378 0.239612 0.746819 -0.009752 -0.354533 0.604561 0.253256 0.317634 -0.954335 1.099515 -0.245091 -0.643857 -1.235819 -0.490284 0.567052 -1.588660 1.257677 0.153076 0.384079 -0.320327 -0.281140 -0.029320 0.453483 -0.453646 0.418260 0.465740 -0.267949 
retro -0.062758 -0.079355 0.167844 -0.298443 -0.390779 0.644856 0.015638 0.081004 -0.524804 0.520979 0.958225 0.974916 0.055476 -0.421115 -0.717406 -0.156009 -0.006560 0.068948 0.844348 0.192173 0.907867 0.083423 1.227586 0.559766 1.150306 0.430165 -0.195288 0.786393 -0.521834 -0.366574 0.201846 -1.218307 0.119857 0.200864 0.177206 0.430515 -0.696226 -0.743038 -0.003995 0.442392 0.170911 -0.370228 -0.675269 0.612992 0.196389 0.149579 0.521833 -0.803103 0.459556 0.624279 0.044574 0.428807 0.672926 0.522638 0.611396 0.610443 0.449614 0.037173 0.330576 -0.031153 0.222454 0.270334 0.029662 0.750488 0.893041 -0.500386 -0.234425 -0.542788 0.515799 0.784205 0.435245 -0.341636 -0.355451 0.795768 -0.007751 -0.323520 -0.444645 0.134075 -1.085136 -0.902576 0.896966 -0.270655 1.008138 0.114907 -0.949309 0.416028 -0.801882 -0.434011 -0.315970 -0.638970 0.187983 -0.302662 0.124931 -0.057202 0.548507 -0.455001 0.702714 -0.057561 -0.996357 0.017731 
aforementioned 0.445163 1.367040 -1.340317 -0.417669 0.764777 1.477553 -0.813200 0.660791 -0.377339 -0.480083 0.899788 0.343899 0.593080 0.026588 -0.189393 -0.388887 0.169908 0.292930 0.445242 -0.586931 0.702979 -0.721262 0.203300 -1.466497 0.069117 -0.526488 0.265036 0.193891 -1.351849 -0.506705 -0.371421 -0.280427 0.399965 -0.565682 0.141548 1.344439 0.880270 -0.449292 1.112949 -0.029131 0.149167 0.648853 -0.388937 -1.084229 -0.053795 -0.235153 -0.607904 -0.984935 0.516179 0.023757 0.309069 -0.083612 0.588627 0.855723 -0.253458 0.126946 0.289556 0.784920 0.391700 0.356292 -0.843503 0.668186 0.311206 0.401342 -0.198128 0.174032 0.050580 -0.315678 0.187461 0.441980 0.063800 0.332150 0.471979 -0.842024 -0.848895 0.269254 0.116925 1.558983 0.138460 0.228885 -0.260809 -0.405039 -1.350218 0.630033 -0.360083 -0.120423 -0.534515 0.075224 0.433583 -0.091024 -0.848470 0.434310 0.370586 -0.348327 1.144841 -0.083668 -0.470802 0.950393 -1.323953 -0.044498 
evelyn 0.344774 0.859619 -0.323560 -0.397684 0.033494 -0.289628 -0.647593 0.506374 0.111182 0.831546 -0.208826 0.278722 -0.733232 0.089733 0.067276 -0.294658 0.012445 0.850671 -0.563802 0.289623 0.083097 -0.402061 -0.575052 -0.222160 -0.397917 -0.276699 -0.438481 -0.089815 -0.297526 0.066188 0.216064 -0.698127 -0.023335 -0.563979 -0.720548 0.691641 -0.787436 -0.195973 0.409613 -0.081867 -0.258582 -0.158888 0.121307 0.050130 -0.362126 -0.331886 -0.456307 -0.171521 -1.177450 -0.186755 0.334082 0.211594 0.290944 0.091990 0.713862 -0.159500 -0.093467 -0.414618 -0.651067 -0.652638 -0.558312 0.242444 0.008129 -0.092895 0.749630 0.789426 -0.593159 1.007979 -0.463900 0.028223 -0.343770 -0.473517 -0.073597 -0.659880 1.020552 -0.588217 -0.342759 0.576822 -0.541844 -0.543422 1.102894 -0.386305 0.277441 -0.069467 -0.023866 -0.122332 0.781483 0.191412 -0.171265 -0.883740 -1.379108 0.113908 -1.046591 0.954969 -0.086790 -0.186933 -0.100543 0.599867 -0.667953 0.673293 
waitress 0.071550 0.718564 0.202540 0.160320 -0.341664 -0.132149 -0.782708 0.814166 0.204329 -0.765656 0.022073 -0.069454 -0.144596 -0.448807 0.361541 0.063575 -0.630158 0.839601 -0.635528 -0.572230 -0.057864 0.472115 0.151596 -0.553458 -0.201213 0.664240 -0.396781 1.022429 -0.402058 0.131130 0.114531 0.641378 -0.239941 -0.009811 0.594808 0.297949 -0.985429 0.200158 -1.237267 -0.223035 -0.544989 -0.991973 -0.860327 -0.978104 0.413637 0.116158 -0.399041 -0.510793 0.320340 0.700950 -0.239851 0.527200 0.064965 -0.442749 1.298275 -0.582959 0.535023 -0.119570 0.112978 0.686483 0.630884 -0.097809 -0.325591 -0.142846 -0.192439 0.046294 0.374031 0.810630 -0.131458 0.565381 0.068205 0.266780 0.669500 0.427075 -0.485649 -0.683641 -0.155626 0.770407 -0.157011 -0.614632 0.624831 -2.059897 0.467609 -0.129577 -0.205213 -1.016776 -0.136374 0.152690 -0.487814 0.131808 0.994553 -0.075210 -0.093973 0.456066 1.325495 0.604876 0.240149 -0.185681 -0.458487 0.689686 
