4
accounting -0.422105 0.703652 -0.117758 -0.283626 0.683273 0.020165 -1.079640 0.636144 0.261969 0.204619 -0.189241 -0.380088 -0.280029 -0.148405 0.001403 -0.385336 -0.273011 -0.104972 -0.010484 0.395242 0.659010 -0.402218 0.530231 -0.548750 0.052569 -0.270653 0.011031 0.448270 -1.038229 -0.157710 -0.173455 0.454533 0.090694 -0.667078 -0.467974 -0.219401 0.463352 -0.394031 -0.472982 -0.016805 -0.522593 0.841855 0.304768 -1.430331 -0.393514 0.064291 -0.451122 0.611926 -0.284031 0.433838 -0.348383 -0.185318 0.862295 0.029463 0.800229 -0.361188 -0.001624 0.130052 0.323568 0.522720 -0.699255 0.177221 0.485005 -0.505247 -0.220610 -0.008192 0.695517 0.073458 0.775879 0.546841 0.766582 -0.284292 -0.770372 -0.247751 0.035038 -1.079594 -0.966049 1.542395 -0.009844 -0.425334 -0.027012 0.008882 -0.530658 -0.797897 0.158534 -0.064504 -0.403373 -0.326821 -0.673129 -0.346168 0.820236 -0.648492 0.290129 -1.019477 0.537982 -0.505488 0.616509 -0.430732 0.927942 -0.690878 
pharmacy -0.556388 0.461140 -0.304283 -0.196660 0.179263 0.287615 0.143455 -0.042998 0.417863 0.019991 1.225911 0.286399 0.428196 -0.485732 0.057125 1.170569 -0.054845 0.622690 -0.488096 -0.459689 0.489192 -0.013937 0.195811 -0.218434 -0.553738 -0.481734 0.450424 0.092899 0.542933 -0.008302 0.462352 0.102312 0.586623 -0.006669 0.013261 0.697346 -0.498311 0.093026 0.421776 0.099497 0.143886 -0.532624 -0.373814 -0.439098 -0.272086 0.251239 -0.168978 -0.344951 -0.006981 -0.013911 -0.379314 0.783368 -0.019094 -0.106165 0.351827 -0.546020 -0.999072 0.490675 0.245695 0.706920 -0.080086 -0.258174 -0.095585 0.424583 0.483421 -0.272456 -0.601238 0.126142 -0.133613 0.047684 0.497650 0.720290 0.003753 -0.607512 0.040202 -0.152169 0.893767 0.787272 0.652488 -0.480093 0.959547 -0.009868 -0.029188 0.595915 0.503882 -1.372841 -0.331851 -0.490563 -0.867707 0.114056 -0.617183 0.094501 -1.427155 -0.425541 -0.166135 0.639942 0.234448 -0.545881 0.254827 -0.204675 
baseball 0.199515 0.561392 0.182940 0.474535 0.271024 0.537109 -0.783437 0.259232 -0.250545 -1.260022 0.238642 1.553178 0.701485 0.090373 -0.173415 -0.073389 0.554225 0.172611 0.224710 0.011739 -0.045045 -0.019232 0.218411 -0.954899 0.223949 0.863949 0.191754 0.202099 0.403782 0.199109 -0.049163 -0.635202 0.048172 0.155111 0.249376 -0.294741 -0.262743 -0.753886 -0.432423 0.458305 -0.357797 -0.019080 -0.333388 -1.031461 -0.321509 -0.164539 -0.253773 0.229311 0.600720 -0.656588 -0.429152 -0.203147 0.082226 0.418157 0.243768 0.435129 -0.082083 -0.090561 -0.565277 -0.117794 -0.305003 0.336020 0.527721 0.729464 0.167720 -0.012823 0.155951 -0.379188 -0.752654 -0.071210 0.228206 -0.913165 -0.009416 -0.682283 0.352900 0.430765 -0.836719 0.567604 0.191631 -1.012260 0.305253 -0.428152 0.029147 -0.067483 -0.864933 -0.782709 0.423685 0.380433 -0.180445 -0.410835 -0.043070 -0.052911 -0.504781 0.213600 0.000925 0.066445 -0.288815 -0.009321 -0.760089 -0.027379 
robotics 0.110823 0.110318 0.870302 0.149974 0.288956 0.279565 -0.105742 -0.080319 -0.337880 0.141551 1.095801 0.199850 0.327134 0.630239 -0.521356 -0.212679 0.237916 0.123402 0.578511 0.073075 -0.064978 0.604599 -0.158537 0.570626 0.038251 0.230553 0.404980 0.858479 -1.104504 -0.119592 0.357601 1.131235 0.843120 -0.456402 -0.308015 0.251721 0.516768 0.060275 0.109899 -0.201069 0.514245 -0.644023 -0.298338 -0.987792 0.445931 -0.158862 0.811389 -0.067985 -0.147519 -0.226488 0.018481 0.060883 0.767351 0.564539 0.038112 -0.321292 -0.273986 0.079805 0.957210 -0.770895 0.224856 0.692637 0.639715 0.403741 0.367987 -0.117556 -0.903805 -1.142993 -0.548995 0.658009 0.112939 0.849898 -0.171941 0.579675 0.574051 0.892823 0.844935 0.462962 -0.510012 0.992601 -0.248695 -0.270281 0.645538 -0.541792 -1.133824 -0.376009 -0.379593 0.168002 0.613454 -0.174884 -0.207075 -0.269935 -0.268929 0.371143 0.022885 -0.076199 0.203355 0.369193 -0.012414 0.397273 
