20
civilian 0.206445 0.039564 0.182088 0.024037 0.135235 0.085219 -0.596245 1.194688 -0.339825 0.704854 -0.273783 0.785979 0.886201 -0.301293 -0.263473 -0.923619 -0.162654 -0.347701 -0.505127 -0.780739 -0.504406 -0.532495 -0.541461 -0.421968 0.369369 -0.141221 0.402812 0.041234 -1.086446 0.351803 0.749455 0.919561 0.940182 0.379017 -0.299800 0.511102 0.765914 0.820266 0.753671 0.348069 -0.627193 0.442586 -0.328228 0.765554 -0.651002 0.451258 0.333754 -0.341059 0.045815 1.394665 0.644038 -0.561521 0.352326 -0.948236 0.541184 -0.253858 -1.023743 -0.227945 0.554809 0.242229 -0.078293 0.063522 -0.327541 0.176200 -0.581879 -0.060386 -0.066723 0.105325 0.079290 0.806973 -0.019988 0.346660 -0.044070 -0.167877 0.420709 -0.079395 0.112873 1.061836 0.543572 -0.637961 0.012294 0.255610 0.294117 -0.908728 0.450064 -0.014279 -0.694295 0.298671 -0.759399 -0.593282 0.578877 -0.151148 -1.414267 0.090751 0.486785 0.437835 -0.436483 0.921440 0.088405 -0.290417 
frederic 0.380417 0.940289 -0.747683 -0.642679 0.342213 -0.742312 -1.338609 0.061477 -0.040340 0.993147 0.509577 -0.156470 -0.148348 0.352822 -0.199231 0.376187 -0.154651 1.069457 0.131906 0.635878 0.167642 0.013469 -0.271284 -0.132476 -1.061130 0.018939 0.301880 0.060632 -0.869379 0.266586 0.883752 -1.017113 -0.213386 -0.555730 -0.345489 0.049261 0.019548 -0.345352 0.673392 0.184665 0.252978 -0.494298 -0.314270 0.173770 -0.438559 -0.672234 -0.344280 -0.082205 -1.100299 0.379868 0.269905 0.058715 0.566464 0.004523 0.897605 -0.085983 -0.334708 -1.152464 -0.341510 -0.796755 -0.924066 0.055314 -0.061939 -0.492598 1.205909 1.908003 0.340898 0.381480 -0.160834 -0.123209 0.140906 -0.603965 -0.063752 -0.890072 0.307555 -0.911440 -0.228138 0.462503 -0.164372 -0.184050 0.760801 -0.097942 -0.424134 0.286682 0.600392 0.009564 0.276362 -0.072558 -0.441796 -0.502857 -1.696949 -0.614869 -0.722584 0.967196 0.189722 -0.580498 0.737333 1.381682 0.389050 0.307890 
raw -0.134814 1.122882 0.333673 0.166360 0.387102 0.533430 -0.060499 -0.003406 -0.763346 0.109823 1.038940 0.217607 -0.303938 -0.343733 1.126878 -0.304780 0.335904 -0.754139 0.295334 -0.459195 0.283454 -0.707946 -0.315385 -1.003631 0.106630 0.531909 0.363742 0.319628 -1.293421 -0.242320 0.496018 -0.809851 0.630549 -0.318528 -0.055689 0.761706 -0.343496 0.299492 0.314935 0.609787 0.022174 -0.740233 -0.047935 -0.366870 0.322361 -0.592979 -0.662843 0.425513 0.163279 0.533662 0.087589 0.193510 -0.699955 0.361369 0.389066 -0.010387 0.314419 -0.131254 -0.681488 -0.583487 0.587679 1.176645 0.293525 -0.299426 0.625972 -0.219493 0.183216 0.196346 0.964538 0.077343 0.836866 1.250648 0.028979 0.938211 0.408275 -0.025630 0.449864 0.022787 -0.759154 -0.608800 -0.723596 -0.544140 0.290869 1.378010 0.310295 -0.628766 -0.460421 -0.315495 -0.806216 -0.687714 0.198797 0.291482 -1.050937 -0.508960 0.083703 0.051463 0.390578 -0.280978 0.367016 -0.666322 
edge 0.037447 0.501810 -0.171905 0.012147 -0.738815 0.126365 -0.628646 0.479408 0.016975 0.330634 0.186381 1.164937 -0.324501 0.410064 -0.310907 -0.690332 -0.433789 -0.295380 0.584705 0.596895 -0.224589 -0.779484 0.602825 -0.225597 0.537154 1.889427 0.112361 -0.572491 -0.352572 -1.807474 -0.020422 -0.391525 -0.654574 0.804425 0.580003 0.366807 0.347058 -0.146936 0.036289 -0.381037 0.333126 -0.130284 0.237602 -0.653029 -0.031968 0.024360 -0.386548 -1.061717 0.010724 -0.137518 -0.167141 0.620808 0.124753 1.368921 -0.516089 0.323402 -0.915698 -0.739918 -0.281005 0.835249 0.494225 0.297140 -0.163294 0.755938 0.330021 -0.448735 -0.735824 0.321136 -0.279378 0.541142 0.323268 -0.450370 -0.143898 -0.951270 1.374744 -0.642989 0.546168 1.288281 -0.851080 0.115042 -0.840774 0.652390 0.560249 0.425420 -1.660152 -0.242064 -0.224003 -0.168455 0.368800 -0.351432 0.140144 -0.380114 0.050252 0.038638 0.212654 -0.332853 0.360210 -0.115744 0.480933 0.291050 
complaint 0.086527 0.887699 -0.055353 0.597127 0.362253 0.056650 -0.259166 0.969925 -0.361037 0.101373 0.265940 0.305441 -0.761931 -0.300243 -0.437453 -0.266065 0.077549 0.245621 -0.204029 0.003186 0.773449 0.092705 0.478532 -0.064861 0.176188 0.230754 0.587497 0.544897 -1.152804 -0.258258 0.406327 -0.155251 -0.614424 -0.077918 0.784745 -0.351372 -0.505669 -0.842124 0.304218 -0.226635 -0.653814 0.078837 0.036826 -0.770869 -0.703121 0.189719 -0.393384 0.351863 0.808294 -0.170797 0.451354 0.238077 0.330547 -0.261332 -0.063462 -0.490757 -0.469808 0.618171 0.383170 -0.401233 -0.909716 -0.668127 -0.365038 -0.093979 1.045025 0.330943 0.046094 -1.093025 -0.309028 0.079818 -0.564275 0.146585 0.411167 0.174327 -0.240549 0.118215 -0.414553 1.102963 0.684561 -0.049847 0.340439 0.569518 -0.076502 -0.713268 0.285860 -0.523902 -1.021560 -1.340139 -0.037914 -0.620962 0.766683 -0.025764 0.150098 0.163928 0.126174 -0.011549 -0.600693 -0.600267 0.763565 0.380528 
apparent 0.342183 0.579465 0.169473 0.383862 0.740014 -0.435576 -1.119363 0.001188 -0.680558 -0.481680 1.578964 -0.585620 1.642889 -0.792984 -1.204105 -0.564178 -0.902596 0.382796 -0.567074 -0.004068 -0.608175 -0.382090 0.764079 -0.626033 -0.464373 -0.286587 -0.693561 0.721969 -0.157127 -0.521305 -0.424559 -0.100026 0.461420 1.128849 0.184380 0.659747 0.404660 0.367531 0.480282 -0.613959 -0.471688 0.090806 -0.250594 0.276074 0.418874 -0.437050 -0.446052 0.500530 -0.127638 -1.341227 0.233213 0.382837 -0.355661 0.491317 0.613841 -1.164006 0.451039 -0.347576 -0.590158 0.305420 -0.330394 0.686390 0.904738 0.117812 -0.254494 0.400296 -0.229927 0.125454 0.075778 0.036620 0.472293 -0.578355 -0.026193 0.024105 -0.984045 -0.015108 0.354492 0.831546 0.863239 -0.161698 -0.740209 -0.387794 -0.095303 -0.677403 -0.425797 -0.600258 -0.330752 -0.913808 -0.268214 0.095049 -0.752864 0.797753 -0.287813 0.833388 0.742862 0.204379 -0.646701 0.464134 -0.860280 0.235416 
keith 1.408339 0.830055 0.038501 -0.406038 0.308294 1.008076 -0.046816 0.371973 0.134725 -0.778591 0.324182 0.802511 0.224244 0.076271 0.408075 -0.316616 0.461964 -0.078372 0.187478 -0.107116 0.548323 0.204393 0.172544 -0.266061 -0.685588 -0.104376 -0.432110 0.520182 0.692695 0.165840 -0.637267 -0.956020 -1.477935 -0.237919 -0.373606 -0.253718 -0.027025 0.197335 0.516166 0.107273 -1.178212 1.010379 0.310301 -0.749803 -0.056159 -0.040779 0.610066 -0.304432 -0.388007 -0.038553 -0.657802 0.211908 0.248039 0.121953 1.614987 0.134480 0.156626 1.150995 -0.778605 -0.634431 0.140419 0.273622 0.411372 1.195531 0.314674 -0.658887 -0.353650 -0.062866 0.534286 0.377145 0.450872 -1.079941 -0.087399 -1.056557 0.366511 -0.487841 -0.369904 0.398218 -0.148834 -0.574862 1.179075 -0.484000 -0.459762 0.071438 -0.739240 0.269667 0.726538 0.226893 0.072654 -0.533788 -0.230352 0.172760 -0.965093 0.756597 0.230820 0.383908 -0.467522 0.399246 0.576967 -0.362334 
bank 0.774312 0.095850 0.750402 0.001828 -0.098424 0.157860 -0.927014 -0.136092 -0.463356 -0.291196 0.344036 0.641087 0.081098 0.587191 -0.303256 -0.800004 -0.388835 0.674126 -0.780883 1.007397 -0.056634 -1.486840 -0.025886 -0.314364 0.327098 0.092129 0.395295 0.221712 -0.327106 -0.646167 -0.811499 1.203684 0.106558 -0.999370 0.222039 -0.559583 0.016817 -1.410093 -1.506511 0.224192 0.492566 1.184343 0.651782 -0.975785 0.021838 0.027700 0.089627 -0.026753 -1.202053 -0.771763 -0.612795 1.375911 -0.246022 -0.189682 -0.586594 -0.930586 -0.542131 -0.401641 0.359907 0.018846 -1.275606 -1.113735 -0.114248 0.037782 -0.016683 -0.885924 0.646119 1.237579 0.164167 -0.019343 0.360551 -0.083631 0.342274 -0.001010 -0.046060 -0.040342 0.545319 0.780215 0.035468 -0.682201 0.166967 -0.669226 -0.315172 0.238881 1.100690 -0.451835 -0.401421 -0.452897 -1.194782 0.474944 -0.900043 0.286974 -0.364752 -0.172402 0.066565 0.122371 0.091132 0.621122 0.899608 0.010694 
portal 0.742589 0.681436 -0.190612 0.050300 0.965402 0.470383 -0.281585 -0.087799 -1.115737 0.249425 0.677932 0.106143 -0.521037 -0.322172 -0.906252 0.379619 -1.094061 -0.040580 -0.363510 -0.273926 0.305321 0.695347 0.668025 0.191896 -0.230203 -0.743702 -0.527674 0.488501 -0.562198 -1.143879 0.490404 1.402221 0.297097 0.426343 -0.381754 -0.223561 -0.401138 -0.650288 0.458660 0.741720 0.250873 0.091719 0.037726 -1.410181 1.112142 0.019237 -0.101888 -0.092241 0.029794 1.031123 0.104252 -0.196136 -0.144688 0.216043 0.243338 0.479992 0.214696 0.235542 -0.040862 -0.380464 0.047023 0.524148 0.174230 0.524306 0.000197 -0.265388 -0.309981 0.170960 0.441123 0.259659 -0.013480 -0.807046 -0.876121 0.276743 0.098502 -0.393449 -0.733041 0.728258 -0.822361 0.199452 -0.398911 -0.021590 0.519467 0.137049 -0.469158 -0.100382 -0.193332 -0.397144 -0.329010 -0.195919 -0.094116 -1.280037 0.680848 -0.138970 0.366235 -0.296740 0.339755 -0.429917 0.022381 -0.118072 
sprinter -0.568347 -1.318383 -0.507109 0.396658 0.274316 0.454357 -0.209801 0.401712 -0.537249 -0.602174 0.978710 0.339793 0.213550 -0.120869 0.586486 0.229511 0.033913 0.437115 0.612831 -0.107066 0.042951 -0.143528 0.149784 0.100921 0.112310 0.330448 0.315681 -0.232526 -0.214884 -0.228825 -0.086996 0.653947 0.789386 0.111617 0.570952 0.152367 -0.296452 0.332039 -0.317918 0.954269 0.262524 -0.614268 -0.874239 -0.683541 -0.504057 -0.754705 0.360988 -0.363939 0.580750 0.116365 -1.004721 -0.822741 0.615882 0.124838 -0.253552 -1.235996 0.119867 -0.245848 -0.263694 -0.196082 -0.450336 0.160833 -0.147241 0.272666 0.287183 0.786181 -0.636707 -0.933642 -0.245426 0.331866 0.416668 -0.137349 -0.259607 -1.000466 -0.048281 0.500014 -0.150830 0.593078 0.172842 -1.391855 0.377285 -0.455991 0.261883 -1.091705 -0.163594 -0.711280 0.599356 -0.041779 -0.399350 -0.647900 1.288580 -0.214155 -0.326232 -0.019466 0.218409 -0.654061 -1.390924 -0.068621 -0.412785 -0.145241 
geographical -0.305877 0.591312 -0.547846 0.180032 -0.694824 1.376926 -0.603105 -0.296786 -0.337114 -0.235298 1.117902 0.205734 -0.103547 0.224389 -0.966573 -0.208455 0.319715 1.132623 -1.220992 -0.354158 0.943826 0.538898 -1.000002 -0.068676 -0.814129 -0.804549 0.828737 1.185689 -0.729755 0.911046 -0.041075 -0.035968 0.968913 -0.089622 0.063674 0.626211 0.284926 -1.566680 0.319441 0.592967 0.483631 0.298680 0.155296 -0.118654 -0.775904 0.170242 0.977021 0.287900 -0.254859 0.405229 0.404469 -0.330824 0.638494 0.628402 0.932235 0.177139 -1.256459 -0.740553 0.395637 -0.116577 -1.550598 0.385312 0.583493 -0.189392 -0.441755 -0.745371 -0.751234 -0.137725 -0.564234 0.416571 0.408294 -0.207052 0.133301 -0.096661 0.101299 0.531800 0.763510 0.202625 0.379350 -0.329431 0.220474 0.595873 0.544101 0.666750 -1.014769 -0.313717 -0.296659 0.300155 -0.390765 -0.556791 -0.413676 0.343005 -0.210159 -0.604602 0.666838 -0.001817 -0.371935 -0.427011 0.528760 -0.278133 
profitable -0.925614 0.837844 0.453497 -0.504140 0.484922 0.748374 -0.386876 -0.023266 0.578044 -0.074678 -0.417693 -0.153369 -0.026932 -0.433239 0.033188 0.108950 0.515678 -0.233848 0.571531 0.169366 1.196535 0.391694 1.013162 -0.811332 0.195092 -0.233942 0.218640 0.734156 -0.368097 0.257624 0.607204 0.019717 0.727334 -1.432366 0.287319 0.980992 0.288528 0.900291 -0.371126 -0.068144 -0.692395 -0.241036 0.163040 -1.116138 0.275800 0.573357 -0.119378 -0.367547 0.099354 -0.002156 0.326751 0.628560 0.738965 1.107337 0.532694 -0.137103 -0.355431 -0.479128 1.207094 0.040344 -0.453870 -0.897919 0.163186 -0.431181 0.826363 -0.206178 -0.218111 -0.543457 -0.059710 0.222221 0.353607 -0.534384 -0.507891 0.008487 0.548266 -1.111788 -0.679105 0.630479 0.405626 -0.904211 -0.269760 -0.480016 0.160304 -0.352860 -0.223935 -0.321362 -0.240129 0.156507 -1.109584 0.071553 0.130768 -1.142803 -0.148445 -0.392036 0.269636 -0.413295 0.569400 -0.553084 0.038167 -0.941094 
motivated 0.419349 0.505939 -0.637022 0.602404 0.823101 0.023803 -0.513479 -0.032125 0.095983 -0.401862 0.984241 -0.755559 0.080958 -0.193718 1.384479 0.503248 -0.300918 0.306649 -0.016444 -1.112786 0.190794 0.004972 0.717955 -0.307374 0.370201 0.495741 -0.029255 -0.124045 -0.196255 0.229295 -0.132303 0.055006 -0.369410 -0.301979 0.446951 -0.494401 1.149964 -1.017758 0.424128 0.569197 -0.407595 0.671963 -0.789685 0.461695 0.211850 -0.032500 0.395470 0.122319 -1.237992 -0.264421 -0.196807 -0.620739 0.834961 -0.571447 0.693289 0.193396 0.253340 0.365949 0.096138 0.021451 -0.137666 -0.335659 1.007575 -1.532658 0.256376 0.755810 -0.353742 0.139523 -0.027525 -0.446545 -0.682824 -0.136543 -0.918193 0.625955 -0.826096 0.537237 0.098917 1.575344 -0.325764 0.153504 0.925077 -0.052564 -0.781528 -0.337298 -0.287786 -1.063969 -0.793491 0.023990 -0.843240 -0.560017 0.704365 -0.622218 -0.441487 -1.019358 1.286091 -0.077327 0.058794 0.762484 -0.292146 0.740735 
growing 0.111848 -0.171856 -0.650091 -0.332368 0.455438 0.901953 -0.834898 -0.077998 0.325004 -1.041790 0.543159 -0.102354 0.618829 0.154832 0.012270 -0.077881 -0.345840 0.012884 -0.498017 0.076639 0.329357 0.815632 0.170645 -0.635631 0.448688 -0.087068 -0.090294 -0.561853 -0.817478 0.428246 0.545931 0.021265 -0.121701 -0.084582 0.744089 -0.080631 0.124532 0.519431 -0.065241 -0.215924 0.542636 -0.533343 -1.090511 -0.387893 0.109684 1.094673 -0.285822 -0.410659 -0.590913 -0.008829 -0.114378 0.342908 0.802948 1.796819 0.046357 0.704497 0.332385 -0.200170 -0.654403 0.467749 0.523647 0.902386 -0.924947 0.070140 0.662747 -1.208152 0.612360 0.066293 -0.820104 0.514996 0.268090 0.956583 -0.149428 0.500469 0.156644 0.135249 -0.180214 0.418624 0.383058 0.258463 -0.042110 0.074097 -0.313324 -0.450514 -1.156949 -0.733968 -0.192245 -0.081917 -0.798250 -0.340035 -0.632760 0.435755 -1.432404 -1.342623 0.980697 0.371625 0.389414 0.510813 0.471451 0.757286 
overrun -0.549410 1.195761 -0.066959 0.060203 -0.005305 0.438658 -0.708819 1.925456 0.937958 0.131514 0.425933 -0.457778 1.610098 -0.667229 -0.711634 -0.728894 -1.491287 -0.036091 0.188772 0.209824 -0.348448 0.006553 0.802813 -0.772392 0.034770 0.052535 -0.493822 0.645088 0.099063 -0.963608 0.143030 -0.879479 0.847322 -0.584829 0.398880 -0.472773 0.036204 0.213891 0.203573 -0.072619 0.515464 -0.475322 -0.019354 -0.796400 -0.572690 0.413317 -0.186114 -0.288135 -0.598272 -0.410282 -0.573149 -0.187111 0.561055 -0.527690 -0.556143 0.049915 -0.395015 -0.104597 0.664476 -0.548428 0.232059 -0.654236 0.291441 -0.464583 0.030700 -0.135481 0.519380 0.413530 0.514247 -0.779882 -0.686398 1.254387 -0.433247 -0.968464 1.353387 0.563644 0.498082 0.857058 -0.293799 1.068019 0.094004 -0.547463 0.180117 0.029291 -1.229045 0.308432 -0.212998 -0.026809 -1.378947 -0.408114 0.328520 -0.187626 0.059859 -0.174842 -0.008398 -0.524973 -0.836519 -0.238482 -0.461266 -0.309100 
tour 0.098569 0.135770 -0.494885 0.076706 -0.011868 0.789694 -1.372455 -0.936178 -0.116564 -0.486642 -0.078152 0.879817 -0.118217 -0.200020 -0.393139 -1.514792 0.442743 0.562519 -0.201849 0.479591 -0.057254 -0.771623 -0.987869 -0.438647 0.508090 0.689425 -0.444957 -0.488043 -1.021548 0.094092 0.602389 0.753637 -0.777739 -0.797946 0.476354 0.028935 -0.306947 -0.911877 -0.107357 -0.320994 0.081125 -0.610607 0.661083 -0.007236 -0.120660 0.829108 -0.825202 -0.783971 -0.370695 -0.053833 -0.247249 0.301825 0.064516 0.156470 -0.145552 -0.177753 -0.533153 0.573593 -0.007147 0.121421 -0.181932 0.363163 0.448796 0.291641 -0.320143 0.177898 -0.364135 -0.146094 1.146489 -0.088102 -0.144264 0.119659 0.512555 -0.683207 0.519190 -0.536870 -0.321792 0.314482 -0.622009 -0.187877 0.294471 -0.798786 0.708247 -0.421133 0.242584 0.076819 1.279008 -0.493946 -0.139818 -0.806872 0.279767 0.248986 -0.557370 0.159326 1.047965 -0.143283 -0.146544 -0.279417 -0.939703 0.138944 
keller 0.232155 0.490022 1.192346 0.353857 -0.128858 0.211338 -0.597329 -0.239959 0.402413 -0.446764 0.671627 1.106092 -0.520831 0.183270 0.103036 1.139986 1.335866 -0.051347 0.684454 0.368468 -0.834046 0.757944 -0.603644 -0.981718 -0.209372 0.869700 0.030015 0.491501 -0.530067 -0.802231 -0.005358 0.131407 -0.059348 -0.116416 -0.000265 0.427968 -1.124264 1.158496 -0.391038 -0.121549 0.798993 -0.381504 -1.086057 0.176418 -0.636279 -0.255221 -0.033084 -0.270701 -0.512715 0.347057 -0.309700 0.466388 -0.019691 -0.357393 -0.023502 -0.091040 0.377193 0.142879 -0.287589 -0.839627 0.576002 -0.531200 0.015475 -0.378310 -0.392105 0.418717 1.374913 -0.023977 0.735430 0.541379 0.599055 -0.994953 0.047025 -1.030543 -0.445747 -0.164717 0.437096 0.716173 0.183340 0.865022 0.631685 0.266676 0.482886 0.247051 -1.061549 -1.282818 0.360289 -0.576901 -0.227134 0.375949 0.591066 -0.924281 0.162876 0.522932 0.321954 -0.422310 -0.406191 0.039497 -0.451518 0.090363 
singing -0.152350 -0.063210 -0.149591 -0.180273 -0.501192 -0.286161 -0.890859 0.657623 -0.198985 -0.212606 0.360402 1.110044 -0.538256 0.177805 -0.328754 0.118354 0.246940 0.253546 0.280006 -0.458390 0.415844 -0.556651 0.018208 0.167790 -0.001735 0.418261 0.881660 0.823842 0.157962 -0.110804 -1.141611 -0.328906 0.377299 -0.038956 0.726791 0.384348 -0.639727 -0.800931 0.109790 0.069861 -0.014164 -0.627143 -1.246612 -0.077732 -0.061776 0.458894 -0.317311 -0.428922 0.321191 0.090680 -0.491401 0.196592 0.641252 -0.047619 0.706711 0.695093 0.353686 0.695645 0.055374 0.657275 0.220150 1.145455 -0.158823 1.099611 0.997963 0.228026 0.205540 0.712719 0.054798 -0.010308 -0.058283 0.065835 0.162847 1.191467 0.131491 -0.676529 0.403797 0.841560 -0.098051 -0.074163 0.916506 -1.251820 1.204409 0.293594 -0.310245 0.144717 -0.083810 -0.338908 0.553777 0.244845 0.186951 0.257777 0.052439 0.390278 0.462155 -0.249418 0.115889 1.019808 -1.321782 0.655946 
emile 0.706161 -0.418470 0.303200 0.297680 -0.598686 -0.166243 -0.602074 -0.096479 -0.475840 -0.133092 0.182946 0.733623 -0.094444 1.045403 -0.091057 -0.370885 -0.577304 0.366123 0.073873 -0.409891 0.371589 -0.275543 -0.105172 -0.258581 -0.046546 0.491584 -0.344583 0.279393 -0.519826 -0.031685 0.582584 -0.053204 -0.212916 1.028216 0.532398 -0.801830 0.557823 -0.040229 -0.062537 0.719547 -0.212019 -0.003250 0.181878 -0.538733 0.058906 0.433578 -0.061002 -1.253195 1.137031 0.330712 1.191101 0.437402 0.078417 0.069979 -0.190578 -0.768168 1.461840 0.702107 0.413742 -1.132304 -0.990638 -0.322671 0.563449 -0.720593 0.576768 0.842404 0.117322 -0.134530 -0.211346 0.122530 1.093706 -0.018771 -0.704052 -0.701149 0.594858 0.137905 1.205363 1.424127 0.292531 -0.105666 1.134122 0.239299 -1.299793 -0.299384 -0.428508 0.582125 0.066324 -0.304976 -0.655480 0.029075 -1.041384 0.550559 -0.207444 0.533325 0.666377 0.404840 0.571143 0.349612 -0.576396 -0.784626 
basin 0.638355 0.380919 -0.693518 0.473264 -0.703895 0.439300 -0.022244 0.772985 -0.272549 -0.884229 0.788746 0.147331 -0.058624 0.098653 -0.254542 -0.002276 -0.090729 -0.072954 -0.536079 0.605174 -0.599374 0.085300 -1.189015 -0.418774 0.222701 -0.356687 -0.180689 1.030489 -1.037155 -0.432668 -0.342845 -0.489311 0.197260 -0.630679 0.568980 1.294357 -0.293537 0.055341 0.121366 0.519837 -0.665439 -0.709259 0.279564 -0.937692 -0.987381 0.149419 -0.992070 1.176536 -0.118650 -0.952675 -0.631768 0.650596 0.825928 -0.238412 -0.623907 0.553020 0.425137 -0.787187 -1.132976 -0.659989 -0.992665 0.972210 -0.012774 0.669955 0.016427 -1.038431 -0.365322 0.626700 -0.998590 -0.858858 0.039059 0.039764 -0.444754 -0.243891 1.169900 -0.156960 -0.352077 -0.230237 -0.221655 0.201616 -0.353996 -0.044744 -0.755665 0.220658 -0.037733 -0.954433 -0.093536 -0.629849 0.006486 -0.738537 -0.060514 -0.758513 0.462869 0.185304 0.039744 0.280861 -0.562267 0.176154 0.019483 -0.188642 
